{"learner":{"attributes":{"best_iteration":"99","best_ntree_limit":"100","scikit_learn":"{\"n_estimators\": 100, \"objective\": \"reg:squarederror\", \"max_depth\": null, \"max_leaves\": null, \"max_bin\": null, \"grow_policy\": null, \"learning_rate\": null, \"verbosity\": null, \"booster\": null, \"tree_method\": null, \"gamma\": null, \"min_child_weight\": null, \"max_delta_step\": null, \"subsample\": null, \"sampling_method\": null, \"colsample_bytree\": null, \"colsample_bylevel\": null, \"colsample_bynode\": null, \"reg_alpha\": null, \"reg_lambda\": null, \"scale_pos_weight\": null, \"base_score\": null, \"missing\": NaN, \"num_parallel_tree\": null, \"random_state\": null, \"n_jobs\": null, \"monotone_constraints\": null, \"interaction_constraints\": null, \"importance_type\": null, \"gpu_id\": null, \"validate_parameters\": null, \"predictor\": null, \"enable_categorical\": false, \"feature_types\": null, \"max_cat_to_onehot\": null, \"max_cat_threshold\": null, \"eval_metric\": null, \"early_stopping_rounds\": null, \"callbacks\": null, \"_estimator_type\": \"regressor\"}"},"feature_names":["Neighborhood ID","Total number of buildings","Percentage of German citizens","Amount of residents per building","Percentage of Houses with building year under 1919","Percentage of Houses with building year 1919-1948","Percentage of Houses with building year 1948-1978","Percentage of Houses with building year 1979-1995","Percentage of Houses with building year 1996-2008","Percentage of Houses with building year >2009","Percentage of impervious land","Percentage of water","Percentage of vegetation","Distance from center","Percentage of Age Group under 18","Percentage of Age Group 18-29","Percentage of Age Group 30-49","Percentage of Age Group 50-64","Percentage of Age Group >65","Percentage of Household size 1","Percentage of Household size 2","Percentage of Household size 3","Percentage of Household size 4","Percentage of Household size 5","Percentage of Household size >=6"],"feature_types":["float","int","float","float","float","float","float","float","float","float","float","float","float","float","float","float","float","float","float","float","float","float","float","float","float"],"gradient_booster":{"model":{"gbtree_model_param":{"num_parallel_tree":"1","num_trees":"100","size_leaf_vector":"0"},"tree_info":[0,0,0,0,0,0,0,0,0,0,0,0,0,0,0,0,0,0,0,0,0,0,0,0,0,0,0,0,0,0,0,0,0,0,0,0,0,0,0,0,0,0,0,0,0,0,0,0,0,0,0,0,0,0,0,0,0,0,0,0,0,0,0,0,0,0,0,0,0,0,0,0,0,0,0,0,0,0,0,0,0,0,0,0,0,0,0,0,0,0,0,0,0,0,0,0,0,0,0,0],"trees":[{"base_weights":[4.081125E2,1.0341E3,3.0525583E2,1.11896E3,4.0653336E2,5.0959564E2,2.1425455E2,1.338E2,5.59275E2,6.961818E1,2.4484889E2,2.975E1,1.5856667E2,2.3848E2,6.245687E2,3.044E1,8.765714E1,2.6083157E2,1.38325E2,3.3E0,3.64E1,3.0752667E2,2.2077917E2],"categories":[],"categories_nodes":[],"categories_segments":[],"categories_sizes":[],"default_left":[0,0,0,0,0,1,1,1,1,1,1,0,0,0,0,0,0,0,0,0,0,0,0],"id":0,"left_children":[1,3,5,-1,-1,7,9,11,13,15,17,-1,-1,-1,-1,19,-1,21,-1,-1,-1,-1,-1],"loss_changes":[5.350388E6,1.84169E5,1.322646E6,0E0,0E0,3.54563E5,2.2633225E5,5.5905312E3,2.69971E5,5.105793E3,4.05345E4,0E0,0E0,0E0,0E0,6.8865186E2,0E0,3.17425E3,0E0,0E0,0E0,0E0,0E0],"parents":[2147483647,0,0,1,1,2,2,5,5,6,6,7,7,8,8,9,9,10,10,15,15,17,17],"right_children":[2,4,6,-1,-1,8,10,12,14,16,18,-1,-1,-1,-1,20,-1,22,-1,-1,-1,-1,-1],"split_conditions":[1.670632E0,2.8844362E-1,1.8220611E0,3.35688E2,1.21960014E2,1.4015E3,1.51E3,9.5E0,2.692205E-1,2.0575467E-1,1.756278E-1,8.925E0,4.757E1,7.1544E1,1.8737062E2,2.2291327E0,2.6297144E1,1.9882917E0,4.14975E1,9.9E-1,1.0920001E1,9.2258E1,6.623376E1],"split_indices":[3,20,3,0,0,1,1,0,16,17,13,0,0,0,0,3,0,3,0,0,0,0,0],"split_type":[0,0,0,0,0,0,0,0,0,0,0,0,0,0,0,0,0,0,0,0,0,0,0],"sum_hessian":[8.7E1,1.1E1,7.6E1,9E0,2E0,2.2E1,5.4E1,3E0,1.9E1,1E1,4.4E1,1E0,2E0,4E0,1.5E1,4E0,6E0,3.7E1,7E0,1E0,3E0,1.4E1,2.3E1],"tree_param":{"num_deleted":"0","num_feature":"25","num_nodes":"23","size_leaf_vector":"0"}},{"base_weights":[2.971703E2,7.620073E2,2.2086877E2,8.5061066E2,3.72148E2,3.7043042E2,1.5430902E2,8.999605E2,2.27906E2,2.5384538E2,4.9660645E2,5.2206104E1,1.7583842E2,1.17878204E2,2.9644443E2,5.297817E2,9.901469E1,7.5162285E1,2.8350815E1,2.1555E2,1.413807E2,4.4068333E1,1.5239534E2,2.8049998E0,3.2140953E1,1.5513763E2,2.6543735E2,1.4736964E2,7.0101875E1,3.547314E1,7.7399993E0],"categories":[],"categories_nodes":[],"categories_segments":[],"categories_sizes":[],"default_left":[0,0,0,1,0,0,1,0,0,1,1,1,1,1,0,0,0,0,0,1,1,0,0,0,1,0,0,0,0,0,0],"id":1,"left_children":[1,3,5,7,-1,9,11,-1,-1,13,15,17,19,21,-1,-1,-1,-1,23,25,27,-1,-1,-1,29,-1,-1,-1,-1,-1,-1],"loss_changes":[2.9528585E6,9.7961E4,7.09358E5,7.14675E4,0E0,2.1227375E5,1.11721875E5,0E0,0E0,4.614475E4,7.9446E4,3.8929805E3,3.1102E4,6.0227188E3,0E0,0E0,0E0,0E0,5.875991E2,1.60831875E4,1.195E3,0E0,0E0,0E0,2.1328955E2,0E0,0E0,0E0,0E0,0E0,0E0],"parents":[2147483647,0,0,1,1,2,2,3,3,5,5,6,6,9,9,10,10,11,11,12,12,13,13,18,18,19,19,20,20,24,24],"right_children":[2,4,6,8,-1,10,12,-1,-1,14,16,18,20,22,-1,-1,-1,-1,24,26,28,-1,-1,-1,30,-1,-1,-1,-1,-1,-1],"split_conditions":[1.670632E0,2.8574768E-1,1.8220611E0,4.55E1,1.1164441E2,1.5310028E-1,1.51E3,2.6998816E2,6.83718E1,2.297E3,5.6835E3,7.8853947E-1,8.5091665E-2,2.65E1,8.8933334E1,1.5893451E2,2.9704407E1,2.2548687E1,2.2162786E0,3.3E1,2.3815252E-1,1.32205E1,4.5718605E1,8.415E-1,7E1,4.654129E1,7.963121E1,4.4210896E1,2.1030563E1,1.0641943E1,2.3219998E0],"split_indices":[3,20,3,0,0,5,1,0,0,1,1,12,13,0,0,0,0,0,3,0,13,0,0,0,0,0,0,0,0,0,0],"split_type":[0,0,0,0,0,0,0,0,0,0,0,0,0,0,0,0,0,0,0,0,0,0,0,0,0,0,0,0,0,0,0],"sum_hessian":[8.7E1,1.1E1,7.6E1,8E0,3E0,2.2E1,5.4E1,7E0,1E0,1.3E1,9E0,1E1,4.4E1,4E0,9E0,8E0,1E0,4E0,6E0,1.8E1,2.6E1,2E0,2E0,1E0,5E0,1E1,8E0,2.3E1,3E0,4E0,1E0],"tree_param":{"num_deleted":"0","num_feature":"25","num_nodes":"31","size_leaf_vector":"0"}},{"base_weights":[2.1954514E2,5.0597986E2,1.4886548E2,6.6246735E2,3.3019186E2,2.646584E2,1.0826298E2,3.462025E2,9.304802E1,1.6415599E2,3.4692123E2,4.2229218E1,1.2381167E2,1.867725E1,1.7824504E2,5.900436E1,2.1817778E1,1.6456078E2,1.0141492E2,1.9696362E2,7.515336E1,2.38425E0,2.4659325E1,1.9887976E2,8.5655495E1,2.6959589E1,6.5789995E0,5.8362476E1,2.0914911E2],"categories":[],"categories_nodes":[],"categories_segments":[],"categories_sizes":[],"default_left":[1,0,0,0,1,1,1,0,0,1,0,1,0,0,1,0,0,0,0,0,0,0,1,1,0,0,0,0,0],"id":2,"left_children":[1,3,5,-1,7,9,11,-1,-1,13,-1,15,17,-1,19,-1,21,23,-1,-1,-1,-1,25,27,-1,-1,-1,-1,-1],"loss_changes":[1.7062465E6,2.48905E5,3.09854E5,0E0,5.75475E3,9.186775E4,5.1242125E4,0E0,0E0,1.7167469E4,0E0,2.8215137E3,2.3467625E4,0E0,2.5650938E3,0E0,3.2775488E2,2.0876125E4,0E0,0E0,0E0,0E0,7.2170166E1,7.8071875E2,0E0,0E0,0E0,0E0,0E0],"parents":[2147483647,0,0,1,1,2,2,4,4,5,5,6,6,9,9,11,11,12,12,14,14,16,16,17,17,22,22,23,23],"right_children":[2,4,6,-1,8,10,12,-1,-1,14,-1,16,18,-1,20,-1,22,24,-1,-1,-1,-1,26,28,-1,-1,-1,-1,-1],"split_conditions":[2.5610786E-2,1.0770496E-2,1.7822659E0,1.9874022E2,6.2E1,9.126999E-1,1.51E3,1.03860756E2,2.7914408E1,1.8E1,1.0407638E2,7.8853947E-1,4.8000526E-1,5.603175E0,7.469286E-2,1.770131E1,2.2162786E0,1.2672644E-2,3.0424477E1,5.908909E1,2.254601E1,7.15275E-1,7E1,1.9725E3,2.569665E1,8.087877E0,1.9736999E0,1.7508743E1,6.2744736E1],"split_indices":[13,23,3,0,0,2,1,0,0,0,0,12,6,0,13,0,3,24,0,0,0,0,0,1,0,0,0,0,0],"split_type":[0,0,0,0,0,0,0,0,0,0,0,0,0,0,0,0,0,0,0,0,0,0,0,0,0,0,0,0,0],"sum_hessian":[8.7E1,1.6E1,7.1E1,7E0,9E0,1.7E1,5.4E1,8E0,1E0,9E0,8E0,1.1E1,4.3E1,1E0,8E0,5E0,6E0,1.3E1,3E1,6E0,2E0,1E0,5E0,8E0,5E0,4E0,1E0,1E0,7E0],"tree_param":{"num_deleted":"0","num_feature":"25","num_nodes":"29","size_leaf_vector":"0"}},{"base_weights":[1.614848E2,4.2404846E2,1.1846859E2,2.394307E2,5.217139E2,2.0265486E2,8.110944E1,5.61403E2,1.4178973E2,1.3478682E2,2.7740463E2,3.0226854E1,9.174497E1,1.5298386E2,5.1048275E1,2.9609006E2,5.4617935E1,1.638054E1,4.3566322E1,1.1775834E2,7.004131E1,1.6693938E2,6.0122684E1,1.9885252E1,5.0791745E0,4.788964E1,1.313652E1,7.114076E1,1.4519469E2,7.8205154E1,4.5024166E1,1.5255273E2,3.5807068E1,9.194944E1,5.2717117E1],"categories":[],"categories_nodes":[],"categories_segments":[],"categories_sizes":[],"default_left":[0,1,0,0,1,0,1,0,0,1,1,1,1,1,0,0,0,1,1,1,1,0,0,0,0,0,0,0,1,1,0,0,0,0,0],"id":3,"left_children":[1,3,5,-1,7,9,11,-1,-1,13,15,17,19,21,-1,-1,-1,23,25,27,29,-1,-1,-1,-1,-1,-1,-1,31,33,-1,-1,-1,-1,-1],"loss_changes":[9.4367925E5,9.1455E4,2.257375E5,0E0,2.5950625E4,7.9291375E4,2.6990875E4,0E0,0E0,1.35235625E4,2.5456812E4,1.3180869E3,1.7158375E4,4.2183438E3,0E0,0E0,0E0,1.762555E2,2.8686523E1,1.3972031E4,1.99325E3,0E0,0E0,0E0,0E0,0E0,0E0,0E0,3.3912188E3,1.8086641E3,0E0,0E0,0E0,0E0,0E0],"parents":[2147483647,0,0,1,1,2,2,4,4,5,5,6,6,9,9,10,10,11,11,12,12,13,13,17,17,18,18,19,19,20,20,28,28,29,29],"right_children":[2,4,6,-1,8,10,12,-1,-1,14,16,18,20,22,-1,-1,-1,24,26,28,30,-1,-1,-1,-1,-1,-1,-1,32,34,-1,-1,-1,-1,-1],"split_conditions":[1.670632E0,7.836144E-4,1.8220611E0,7.182921E1,4.25E1,1.5310028E-1,1.51E3,1.6842091E2,4.2536922E1,2.0647827E-1,5.6835E3,9.8470636E-2,8.5091665E-2,7.469286E-2,1.5314483E1,8.882702E1,1.6385382E1,8.337934E-2,9.6894115E-1,2.25E1,1.60081E-1,5.0081814E1,1.8036806E1,5.9655757E0,1.5237525E0,1.4366893E1,3.9409564E0,2.134223E1,6.95E1,2.0070261E-1,1.3507251E1,4.5765823E1,1.0742121E1,2.7584833E1,1.5815136E1],"split_indices":[3,11,3,0,0,5,1,0,0,15,1,15,13,13,0,0,0,15,2,0,13,0,0,0,0,0,0,0,0,10,0,0,0,0,0],"split_type":[0,0,0,0,0,0,0,0,0,0,0,0,0,0,0,0,0,0,0,0,0,0,0,0,0,0,0,0,0,0,0,0,0,0,0],"sum_hessian":[8.7E1,1.1E1,7.6E1,5E0,6E0,2.2E1,5.4E1,5E0,1E0,1.3E1,9E0,1E1,4.4E1,1E1,3E0,8E0,1E0,6E0,4E0,1.8E1,2.6E1,8E0,2E0,4E0,2E0,3E0,1E0,8E0,1E1,1.8E1,8E0,9E0,1E0,1E1,8E0],"tree_param":{"num_deleted":"0","num_feature":"25","num_nodes":"35","size_leaf_vector":"0"}},{"base_weights":[1.2022104E2,3.2039954E2,8.746308E1,4.5737204E2,2.239229E2,1.500604E2,5.969578E1,1.0031028E2,2.0470451E2,8.981945E1,4.823323E1,5.1735016E1,1.215482E2,2.2723788E2,7.638067E1,1.1246758E2,4.087734E1,2.3503996E1,5.5226616E1,1.727685E1,6.464489E1,1.3476317E2,5.019721E1,1.27330826E2,4.02975E1,4.5642982E1,1.67258E1,4.3119343E1,7.1812126E1,4.278978E0,1.9302633E1,4.9589275E1,2.8982851E1],"categories":[],"categories_nodes":[],"categories_segments":[],"categories_sizes":[],"default_left":[0,1,0,0,0,0,0,0,1,1,1,1,1,0,0,1,0,1,0,0,0,0,0,0,0,0,0,1,0,0,0,0,0],"id":4,"left_children":[1,3,5,-1,-1,7,9,11,13,15,17,19,21,-1,-1,23,-1,25,27,-1,-1,-1,-1,-1,-1,-1,29,31,-1,-1,-1,-1,-1],"loss_changes":[5.490314E5,5.615975E4,1.2488019E5,0E0,0E0,4.199272E4,1.4658875E4,8.154625E3,1.1559125E4,1.0920898E4,5.9654844E3,1.5522432E3,1.7213906E3,0E0,0E0,4.5230234E3,0E0,8.872705E2,3.3292734E3,0E0,0E0,0E0,0E0,0E0,0E0,0E0,2.3813818E2,4.8346875E2,0E0,0E0,0E0,0E0,0E0],"parents":[2147483647,0,0,1,1,2,2,5,5,6,6,7,7,8,8,9,9,10,10,11,11,12,12,15,15,17,17,18,18,26,26,27,27],"right_children":[2,4,6,-1,-1,8,10,12,14,16,18,20,22,-1,-1,24,-1,26,28,-1,-1,-1,-1,-1,-1,-1,30,32,-1,-1,-1,-1,-1],"split_conditions":[1.670632E0,5E0,1.8220611E0,1.3721162E2,6.717687E1,1.5310028E-1,1.9683418E0,3.7471895E-4,4.2013124E-2,9.077376E-2,1.51E3,2.65E1,6.483823E-2,6.817137E1,2.2914202E1,6.7E1,1.2263202E1,4.5E0,9.9954925E-2,5.183055E0,1.9393467E1,4.042895E1,1.5059163E1,3.819925E1,1.2089251E1,1.3692895E1,4.503858E-2,7.25E1,2.1543638E1,1.2836934E0,5.79079E0,1.4876783E1,8.694856E0],"split_indices":[3,0,3,0,0,5,3,9,13,13,1,0,13,0,0,0,0,0,22,0,0,0,0,0,0,0,5,0,0,0,0,0,0],"split_type":[0,0,0,0,0,0,0,0,0,0,0,0,0,0,0,0,0,0,0,0,0,0,0,0,0,0,0,0,0,0,0,0,0],"sum_hessian":[8.7E1,1.1E1,7.6E1,3E0,8E0,2.2E1,5.4E1,1.3E1,9E0,1.3E1,4.1E1,5E0,8E0,7E0,2E0,8E0,5E0,1E1,3.1E1,2E0,3E0,6E0,2E0,6E0,2E0,1E0,9E0,2E1,1.1E1,2E0,7E0,1.2E1,8E0],"tree_param":{"num_deleted":"0","num_feature":"25","num_nodes":"33","size_leaf_vector":"0"}},{"base_weights":[8.988168E1,7.1917854E1,3.2340112E2,1.22153786E2,4.4122215E1,3.9339697E2,1.2227297E2,4.4872536E1,1.3638435E2,6.734159E1,3.5331894E1,5.626892E0,1.4182481E2,8.826413E1,3.38099E1,2.0861252E1,4.182217E1,4.8214935E1,1.4844409E2,1.0859757E2,4.0781296E1,3.673885E1,8.118088E0,5.259023E0,2.4323555E1,3.0123262E1,5.4910446E1,1.5236948E2,3.496814E1,6.228895E-1,6.5967712E0,2.5714445E1,4.511883E0,4.5918293E1,2.1731075E1,5.8398552E1,8.270647E0],"categories":[],"categories_nodes":[],"categories_segments":[],"categories_sizes":[],"default_left":[1,0,1,1,0,0,0,0,1,1,1,0,0,1,0,1,0,0,1,0,0,0,0,0,1,1,1,0,0,0,0,0,0,0,0,0,0],"id":5,"left_children":[1,3,5,7,9,-1,-1,-1,11,13,15,-1,17,19,21,23,25,-1,27,-1,-1,-1,-1,29,31,33,35,-1,-1,-1,-1,-1,-1,-1,-1,-1,-1],"loss_changes":[3.4589338E5,1.1050656E5,3.6367E4,2.5773031E4,8.846516E3,0E0,0E0,0E0,1.6275094E4,6.837754E3,3.0721094E3,0E0,7.09425E3,3.295164E3,2.2850146E2,6.8237695E2,2.6332383E3,0E0,4.0260938E3,0E0,0E0,0E0,0E0,2.0698853E1,2.1465039E2,1.2555771E3,1.4692188E3,0E0,0E0,0E0,0E0,0E0,0E0,0E0,0E0,0E0,0E0],"parents":[2147483647,0,0,1,1,2,2,3,3,4,4,8,8,9,9,10,10,12,12,13,13,14,14,15,15,16,16,18,18,23,23,24,24,25,25,26,26],"right_children":[2,4,6,8,10,-1,-1,-1,12,14,16,-1,18,20,22,24,26,-1,28,-1,-1,-1,-1,30,32,34,36,-1,-1,-1,-1,-1,-1,-1,-1,-1,-1],"split_conditions":[3.464799E-1,1.8220611E0,2.75E1,2.7244124E-1,1.9683418E0,1.180191E2,3.6681892E1,1.3461761E1,2.815E2,8.1248686E-2,1.7027846E-2,1.6880677E0,2.0533772E-2,4.302E3,1.9389306E0,1.251779E-1,9.9954925E-2,1.4464481E1,6.252715E-2,3.2579273E1,1.2234389E1,1.1021655E1,2.4354265E0,2.2291327E0,9.886581E-1,1.07696316E-4,9.711287E-1,4.5710846E1,1.0490442E1,1.8686686E-1,1.9790314E0,7.714334E0,1.3535649E0,1.3775489E1,6.519323E0,1.7519566E1,2.4811943E0],"split_indices":[16,3,0,16,3,0,0,0,1,13,23,0,4,1,3,14,22,0,13,0,0,0,0,3,2,11,2,0,0,0,0,0,0,0,0,0,0],"split_type":[0,0,0,0,0,0,0,0,0,0,0,0,0,0,0,0,0,0,0,0,0,0,0,0,0,0,0,0,0,0,0,0,0,0,0,0,0],"sum_hessian":[8.7E1,8.2E1,5E0,2.8E1,5.4E1,3E0,2E0,5E0,2.3E1,1.3E1,4.1E1,1E0,2.2E1,7E0,6E0,1.4E1,2.7E1,2E0,2E1,4E0,3E0,5E0,1E0,3E0,1.1E1,1.6E1,1.1E1,1.9E1,1E0,1E0,2E0,1E1,1E0,4E0,1.2E1,1E1,1E0],"tree_param":{"num_deleted":"0","num_feature":"25","num_nodes":"37","size_leaf_vector":"0"}},{"base_weights":[6.6898056E1,5.269931E1,2.5216432E2,8.8466805E1,3.2881916E1,3.048827E2,9.781838E1,1.01684784E2,4.1059013E1,5.1301308E1,2.5959217E1,1.128634E2,4.1104797E1,8.771537E0,5.0359585E1,7.740269E1,3.312049E1,2.2069134E1,5.033201E1,1.2339065E2,4.5170387E1,8.7616264E1,1.8274185E1,3.790364E1,9.325261E0,4.6756516E1,1.939882E1,7.0300503E0,5.9399986E1,1.2932295E2,2.016919E1,6.041611E0,2.1868876E1],"categories":[],"categories_nodes":[],"categories_segments":[],"categories_sizes":[],"default_left":[1,0,1,0,0,0,0,1,1,0,1,1,0,0,0,1,1,1,1,1,0,0,0,0,0,0,1,0,0,0,0,0,0],"id":6,"left_children":[1,3,5,7,9,-1,-1,11,13,15,17,19,-1,-1,-1,21,23,25,27,29,-1,-1,-1,-1,-1,-1,31,-1,-1,-1,-1,-1,-1],"loss_changes":[2.1819928E5,5.5923E4,1.8998094E4,1.3997344E4,5.68141E3,0E0,0E0,1.02591875E4,1.9606045E3,4.0800078E3,2.8713281E3,7.2535625E3,0E0,0E0,0E0,1.4184531E3,7.847002E2,1.5980547E3,1.5457207E3,6.5767812E3,0E0,0E0,0E0,0E0,0E0,0E0,1.055627E3,0E0,0E0,0E0,0E0,0E0,0E0],"parents":[2147483647,0,0,1,1,2,2,3,3,4,4,7,7,8,8,9,9,10,10,11,11,15,15,16,16,17,17,18,18,19,19,26,26],"right_children":[2,4,6,8,10,-1,-1,12,14,16,18,20,-1,-1,-1,22,24,26,28,30,-1,-1,-1,-1,-1,-1,32,-1,-1,-1,-1,-1,-1],"split_conditions":[3.464799E-1,1.8220611E0,2.75E1,3.1951058E-1,1.9683418E0,9.146481E1,2.9345516E1,5.0164737E-2,2.35E1,4.9230906E-1,1.5074152E-1,5.85E1,1.233144E1,2.6314611E0,1.5107876E1,6.75E1,7.3E1,7.537986E-1,1.9665E3,3.0758348E-1,1.3551117E1,2.628488E1,5.482256E0,1.1371093E1,2.7975783E0,1.4026956E1,6.29E2,2.1090152E0,1.7819996E1,3.8796886E1,6.050757E0,1.8124834E0,6.5606627E0],"split_indices":[16,3,0,20,3,0,0,13,0,6,8,0,0,0,0,0,0,2,1,15,0,0,0,0,0,0,1,0,0,0,0,0,0],"split_type":[0,0,0,0,0,0,0,0,0,0,0,0,0,0,0,0,0,0,0,0,0,0,0,0,0,0,0,0,0,0,0,0,0],"sum_hessian":[8.7E1,8.2E1,5E0,2.8E1,5.4E1,3E0,2E0,2.1E1,7E0,1.3E1,4.1E1,1.7E1,4E0,2E0,5E0,4E0,9E0,3.7E1,4E0,1.4E1,3E0,3E0,1E0,7E0,2E0,2E0,3.5E1,1E0,3E0,1.3E1,1E0,6E0,2.9E1],"tree_param":{"num_deleted":"0","num_feature":"25","num_nodes":"33","size_leaf_vector":"0"}},{"base_weights":[5.0209827E1,3.901885E1,1.9665005E2,5.792939E1,1.9179285E1,2.6504477E2,9.619151E1,6.616204E1,2.039167E1,1.6037867E1,3.9218204E1,3.3332787E1,7.664726E1,2.1565233E1,5.501587E0,3.7405216E1,1.3811757E1,5.975542E0,4.6034985E1,5.4530994E1,2.1216862E1,3.2136528E1,8.3595184E1,2.302063E1,5.6887283E0,5.384083E0,1.6027376E1,7.0172286E0,2.4780535E1,6.6148496E0,-2.2310247E0,2.3601078E1,1.1817842E1],"categories":[],"categories_nodes":[],"categories_segments":[],"categories_sizes":[],"default_left":[1,0,1,1,1,0,0,1,0,1,1,0,0,1,0,0,1,0,0,0,1,0,0,0,0,1,0,0,0,0,0,0,0],"id":7,"left_children":[1,3,5,7,9,-1,-1,11,13,15,17,19,21,23,-1,-1,25,-1,-1,-1,27,-1,-1,-1,-1,29,31,-1,-1,-1,-1,-1,-1],"loss_changes":[1.3654216E5,3.002864E4,1.5729953E4,1.1630297E4,2.0149492E3,0E0,0E0,9.1486875E3,3.8626953E1,1.2908779E3,8.5795557E2,1.4113828E3,5.0449688E3,5.3894775E1,0E0,0E0,5.859175E2,0E0,0E0,0E0,2.3093188E2,0E0,0E0,0E0,0E0,9.910968E1,6.137754E2,0E0,0E0,0E0,0E0,0E0,0E0],"parents":[2147483647,0,0,1,1,2,2,3,3,4,4,7,7,8,8,9,9,10,10,11,11,12,12,13,13,16,16,20,20,25,25,26,26],"right_children":[2,4,6,8,10,-1,-1,12,14,16,18,20,22,24,-1,-1,26,-1,-1,-1,28,-1,-1,-1,-1,30,32,-1,-1,-1,-1,-1,-1],"split_conditions":[3.464799E-1,1.9683418E0,1.5E1,7.9935625E-2,1.5074152E-1,7.9513435E1,2.8857454E1,8.543736E-1,1.9389306E0,7.537986E-1,1.9665E3,3.3622354E-2,2.0533772E-2,8E1,1.6504761E0,1.1221565E1,1.51E3,1.7926627E0,1.3810496E1,1.6359299E1,1.5735E3,9.640959E0,2.5078556E1,6.9061894E0,1.7066185E0,2.5842571E0,5.608756E-3,2.1051686E0,7.4341607E0,1.984455E0,-6.693075E-1,7.0803237E0,3.5453527E0],"split_indices":[16,3,0,13,8,0,0,2,3,2,1,22,4,0,0,0,1,0,0,0,1,0,0,0,0,3,24,0,0,0,0,0,0],"split_type":[0,0,0,0,0,0,0,0,0,0,0,0,0,0,0,0,0,0,0,0,0,0,0,0,0,0,0,0,0,0,0,0,0],"sum_hessian":[8.7E1,8.2E1,5E0,4.1E1,4.1E1,2E0,3E0,3.3E1,8E0,3.7E1,4E0,9E0,2.4E1,7E0,1E0,2E0,3.5E1,1E0,3E0,2E0,7E0,4E0,2E1,6E0,1E0,8E0,2.7E1,2E0,5E0,7E0,1E0,8E0,1.9E1],"tree_param":{"num_deleted":"0","num_feature":"25","num_nodes":"33","size_leaf_vector":"0"}},{"base_weights":[3.7624355E1,1.847479E2,3.0258255E1,5.1442078E1,2.1203581E2,2.4460146E1,8.300754E1,3.5277157E1,1.4348491E1,8.801583E1,2.3974731E1,1.665734E1,4.0667194E1,1.2066407E1,3.301168E1,2.4145432E0,1.7971588E1,4.810381E1,1.6062681E1,2.7403053E1,1.0027158E1,8.291271E0,3.8488056E1,7.413872E0,1.9928955E1,5.634257E1,2.3577345E1,1.8036568E1,6.760681E0,1.349989E1,4.2653394E0],"categories":[],"categories_nodes":[],"categories_segments":[],"categories_sizes":[],"default_left":[1,0,1,0,0,0,0,1,1,0,0,1,1,1,1,0,1,1,1,0,1,0,0,0,0,0,0,0,0,0,0],"id":8,"left_children":[1,3,5,-1,-1,7,9,11,13,-1,-1,15,17,19,21,-1,23,25,27,-1,29,-1,-1,-1,-1,-1,-1,-1,-1,-1,-1],"loss_changes":[8.9777805E4,3.6429844E3,2.396654E4,0E0,0E0,8.0253047E3,2.5507031E2,3.0359648E3,1.3904863E3,0E0,0E0,1.4379272E2,4.3506055E3,9.4495996E2,2.2239844E2,0E0,3.8237305E1,2.9150117E3,2.4949219E1,0E0,6.6275146E2,0E0,0E0,0E0,0E0,0E0,0E0,0E0,0E0,0E0,0E0],"parents":[2147483647,0,0,1,1,2,2,5,5,6,6,7,7,8,8,11,11,12,12,13,13,14,14,16,16,17,17,18,18,20,20],"right_children":[2,4,6,-1,-1,8,10,12,14,-1,-1,16,18,20,22,-1,24,26,28,-1,30,-1,-1,-1,-1,-1,-1,-1,-1,-1,-1],"split_conditions":[3.5E0,4.5436624E-2,2.6166812E-1,1.5432624E1,6.3610744E1,1.9683418E0,5.9390426E-2,8.543736E-1,9.353715E-1,2.640475E1,7.1924195E0,7E0,7.9935625E-2,7.785815E-1,1.8245E3,7.2436297E-1,2.748928E-1,4.24E3,1.543504E-1,8.220917E0,5.75E1,2.4873815E0,1.1546417E1,2.2241616E0,5.978687E0,1.6902773E1,7.0732036E0,5.4109707E0,2.0282044E0,4.0499673E0,1.2796018E0],"split_indices":[0,4,4,0,0,3,7,2,12,0,0,0,13,2,1,0,16,1,15,0,0,0,0,0,0,0,0,0,0,0,0],"split_type":[0,0,0,0,0,0,0,0,0,0,0,0,0,0,0,0,0,0,0,0,0,0,0,0,0,0,0,0,0,0,0],"sum_hessian":[8.7E1,3E0,8.4E1,1E0,2E0,7.7E1,7E0,3.6E1,4.1E1,6E0,1E0,9E0,2.7E1,3.8E1,3E0,1E0,8E0,2E1,7E0,3E0,3.5E1,1E0,2E0,2E0,6E0,1.4E1,6E0,5E0,2E0,2.1E1,1.4E1],"tree_param":{"num_deleted":"0","num_feature":"25","num_nodes":"31","size_leaf_vector":"0"}},{"base_weights":[2.8388947E1,1.4908438E2,2.2375175E1,4.372577E1,1.6962866E2,1.7992954E1,6.2304924E1,2.5026834E1,9.93027E0,3.27045E1,1.6157417E1,7.739536E0,2.6616625E1,3.6928196E1,1.1803021E1,3.0803265E1,1.2005149E1,-1.0596458E0,9.241387E0,7.0475807E0,3.0790445E1,4.103416E1,1.3325275E1,2.8540344E0,1.3326759E1,1.6805286E1,5.337757E0,-3.0299907E0,6.830244E-1,1.7582083E1,6.8699656E0],"categories":[],"categories_nodes":[],"categories_segments":[],"categories_sizes":[],"default_left":[1,0,1,0,0,0,0,0,1,0,1,1,1,1,1,0,0,1,1,0,0,0,0,0,0,0,0,0,0,0,0],"id":9,"left_children":[1,3,5,-1,-1,7,-1,9,11,13,15,17,19,21,23,-1,25,27,29,-1,-1,-1,-1,-1,-1,-1,-1,-1,-1,-1,-1],"loss_changes":[6.053767E4,1.2409219E3,1.3752328E4,0E0,0E0,4.17501E3,0E0,2.2635332E3,1.183103E3,1.4180488E3,9.0728516E2,4.7232007E2,1.097124E2,1.1007246E3,3.0144531E1,0E0,4.863767E2,2.2671526E1,4.7259106E2,0E0,0E0,0E0,0E0,0E0,0E0,0E0,0E0,0E0,0E0,0E0,0E0],"parents":[2147483647,0,0,1,1,2,2,5,5,7,7,8,8,9,9,10,10,11,11,12,12,13,13,14,14,16,16,17,17,18,18],"right_children":[2,4,6,-1,-1,8,-1,10,12,14,16,18,20,22,24,-1,26,28,30,-1,-1,-1,-1,-1,-1,-1,-1,-1,-1,-1,-1],"split_conditions":[3.5E0,4.5436624E-2,2.6166812E-1,1.3117731E1,5.08886E1,2.0024776E0,1.8691479E1,3.1185275E-1,9.353715E-1,6.0993615E-3,1.399422E-1,9.292616E-2,1.8245E3,6.050367E-2,3.5825E3,9.24098E0,7.259701E-2,1.473364E-1,1.85E1,2.1142743E0,9.237134E0,1.2310248E1,3.9975827E0,8.5621035E-1,3.998028E0,5.041586E0,1.6013272E0,-9.0899724E-1,2.0490733E-1,5.274625E0,2.0609899E0],"split_indices":[0,4,4,0,0,3,0,20,12,9,15,15,1,13,1,0,7,10,0,0,0,0,0,0,0,0,0,0,0,0,0],"split_type":[0,0,0,0,0,0,0,0,0,0,0,0,0,0,0,0,0,0,0,0,0,0,0,0,0,0,0,0,0,0,0],"sum_hessian":[8.7E1,3E0,8.4E1,1E0,2E0,7.7E1,7E0,4E1,3.7E1,2E1,2E1,3.4E1,3E0,1.6E1,4E0,3E0,1.7E1,5E0,2.9E1,1E0,2E0,1.3E1,3E0,1E0,3E0,9E0,8E0,2E0,3E0,5E0,2.4E1],"tree_param":{"num_deleted":"0","num_feature":"25","num_nodes":"31","size_leaf_vector":"0"}},{"base_weights":[2.1437342E1,1.2036069E2,1.652992E1,3.716693E1,1.3570296E2,1.3300569E1,4.5949875E1,3.4438072E1,1.1692621E1,2.1399887E1,5.639989E1,4.282257E0,4.0906464E1,1.9357933E1,7.3866878E0,2.6540087E1,7.1513534E0,1.6611076E1,5.960937E0,2.926126E1,4.9945807E0,1.3701718E1,1.4508991E0,7.209432E0,3.046311E-1],"categories":[],"categories_nodes":[],"categories_segments":[],"categories_sizes":[],"default_left":[1,0,1,0,0,0,1,1,0,0,0,0,0,1,0,1,1,0,0,0,0,0,0,0,0],"id":10,"left_children":[1,3,5,-1,-1,7,9,11,13,-1,-1,-1,-1,15,17,19,21,-1,23,-1,-1,-1,-1,-1,-1],"loss_changes":[4.0730793E4,6.1859375E1,7.4644727E3,0E0,0E0,2.2483906E3,8.454297E2,8.001255E2,2.2994785E3,0E0,0E0,0E0,0E0,2.0896094E3,5.454148E2,7.9191797E2,3.9086078E2,0E0,3.0852612E2,0E0,0E0,0E0,0E0,0E0,0E0],"parents":[2147483647,0,0,1,1,2,2,5,5,6,6,7,7,8,8,13,13,14,14,15,15,16,16,18,18],"right_children":[2,4,6,-1,-1,8,10,12,14,-1,-1,-1,-1,16,18,20,22,-1,24,-1,-1,-1,-1,-1,-1],"split_conditions":[3.5E0,4.5436624E-2,2.6166812E-1,1.115008E1,4.0710888E1,1.6390184E0,4.0005E3,2.974E3,4.903793E-1,6.419966E0,1.6919968E1,1.2846771E0,1.2271939E1,2.193145E-3,5.403458E-3,2.0986784E-1,7.283263E-1,4.983323E0,2.1098332E0,8.7783785E0,1.4983742E0,4.1105156E0,4.3526974E-1,2.1628296E0,9.1389336E-2],"split_indices":[0,4,4,0,0,3,1,1,6,0,0,0,0,11,7,17,12,0,3,0,0,0,0,0,0],"split_type":[0,0,0,0,0,0,0,0,0,0,0,0,0,0,0,0,0,0,0,0,0,0,0,0,0],"sum_hessian":[8.7E1,3E0,8.4E1,1E0,2E0,7.7E1,7E0,4E0,7.3E1,3E0,4E0,1E0,3E0,2.5E1,4.8E1,1.5E1,1E1,5E0,4.3E1,1.3E1,2E0,4E0,6E0,3.5E1,8E0],"tree_param":{"num_deleted":"0","num_feature":"25","num_nodes":"25","size_leaf_vector":"0"}},{"base_weights":[1.6265429E1,9.721771E1,1.2264552E1,1.2837177E2,4.404244E1,9.767021E0,3.5082405E1,2.6817982E1,8.482943E0,1.6584915E1,4.2863914E1,3.639923E0,3.1702515E1,1.4120651E1,5.3183846E0,2.1287708E1,6.456908E0,1.1086116E1,3.922581E0,2.5343105E1,5.8272896E0,1.0356506E1,1.0778095E0,1.2753511E1,3.5001526E0,8.661989E-1,5.8440175E0],"categories":[],"categories_nodes":[],"categories_segments":[],"categories_sizes":[],"default_left":[1,1,1,0,0,0,1,1,0,0,0,0,0,1,0,1,1,0,1,0,0,0,0,0,0,0,0],"id":11,"left_children":[1,3,5,-1,-1,7,9,11,13,-1,-1,-1,-1,15,17,19,21,23,25,-1,-1,-1,-1,-1,-1,-1,-1],"loss_changes":[2.7309121E4,9.726992E2,4.5013525E3,0E0,0E0,1.4802974E3,4.406123E2,4.5067505E2,1.2451235E3,0E0,0E0,0E0,0E0,1.2906357E3,3.509944E2,6.6739404E2,2.8250623E2,6.919995E1,2.3571625E2,0E0,0E0,0E0,0E0,0E0,0E0,0E0,0E0],"parents":[2147483647,0,0,1,1,2,2,5,5,6,6,7,7,8,8,13,13,14,14,15,15,16,16,17,17,18,18],"right_children":[2,4,6,-1,-1,8,10,12,14,-1,-1,-1,-1,16,18,20,22,24,26,-1,-1,-1,-1,-1,-1,-1,-1],"split_conditions":[3.5E0,1.5E0,2.6166812E-1,3.851153E1,1.3212732E1,1.6390184E0,4.0005E3,2.974E3,4.903793E-1,4.975475E0,1.2859175E1,1.091977E0,9.510755E0,4.5712397E-4,1.2045508E-2,2.033096E-1,7.476854E-1,5.94416E-3,5.7659217E-4,7.602932E0,1.748187E0,3.106952E0,3.2334286E-1,3.8260536E0,1.0500458E0,2.5985968E-1,1.7532053E0],"split_indices":[0,0,4,0,0,3,1,1,6,0,0,0,0,11,7,17,12,24,9,0,0,0,0,0,0,0,0],"split_type":[0,0,0,0,0,0,0,0,0,0,0,0,0,0,0,0,0,0,0,0,0,0,0,0,0,0,0],"sum_hessian":[8.7E1,3E0,8.4E1,1E0,2E0,7.7E1,7E0,4E0,7.3E1,3E0,4E0,1E0,3E0,2.5E1,4.8E1,1.2E1,1.3E1,8E0,4E1,9E0,3E0,7E0,6E0,6E0,2E0,1.6E1,2.4E1],"tree_param":{"num_deleted":"0","num_feature":"25","num_nodes":"27","size_leaf_vector":"0"}},{"base_weights":[1.2520258E1,8.098346E1,9.151163E0,1.0911603E2,3.523393E1,7.2250347E0,2.6787018E1,1.1136878E1,3.6068623E0,1.4478882E1,3.5475433E1,4.8608036E0,1.5195074E1,2.1893232E0,1.17472105E1,3.1170805E0,8.073578E0,1.030438E1,2.4203077E1,9.062854E0,8.321197E-1,4.700424E0,1.4095498E1,4.2695017E0,1.2530752E0,1.948518E1,6.6868744E0,2.7062094E1,3.5244904E0,1.0739008E1,3.4104347E-1,9.049221E0,-3.2996735E-1],"categories":[],"categories_nodes":[],"categories_segments":[],"categories_sizes":[],"default_left":[1,1,1,0,0,0,1,1,1,0,0,0,1,0,1,1,0,1,1,1,1,0,0,0,0,0,0,0,0,0,0,0,0],"id":12,"left_children":[1,3,5,-1,-1,7,9,11,13,-1,-1,15,17,19,21,23,-1,25,27,29,31,-1,-1,-1,-1,-1,-1,-1,-1,-1,-1,-1,-1],"loss_changes":[1.95569E4,1.3036211E3,2.6938218E3,0E0,0E0,1.0638208E3,3.4186133E2,8.685127E2,4.589306E2,0E0,0E0,6.4469025E1,7.198203E2,3.3762347E2,3.303247E1,2.0427437E1,0E0,4.0109058E2,3.184629E2,8.405209E1,3.0855356E2,0E0,0E0,0E0,0E0,0E0,0E0,0E0,0E0,0E0,0E0,0E0,0E0],"parents":[2147483647,0,0,1,1,2,2,5,5,6,6,7,7,8,8,11,11,12,12,13,13,14,14,15,15,17,17,18,18,19,19,20,20],"right_children":[2,4,6,-1,-1,8,10,12,14,-1,-1,16,18,20,22,24,-1,26,28,30,32,-1,-1,-1,-1,-1,-1,-1,-1,-1,-1,-1,-1],"split_conditions":[3.5E0,1.5E0,2.6166812E-1,3.273481E1,1.0570179E1,1.9683418E0,4.2835E3,8.756379E-1,8.939543E-1,4.3436646E0,1.0642631E1,1.447775E-1,3.019669E-1,6.4220116E-3,1.06176514E-4,1.4474219E-1,2.4220734E0,3.009E3,4.9875E3,5.8E1,7.785815E-1,1.4101273E0,4.2286496E0,1.2808505E0,3.759226E-1,5.8455544E0,2.0060625E0,8.1186285E0,1.0573472E0,3.2217026E0,1.0231305E-1,2.7147665E0,-9.899021E-2],"split_indices":[0,0,4,0,0,3,1,2,12,0,0,4,16,4,11,14,0,1,1,0,2,0,0,0,0,0,0,0,0,0,0,0,0],"split_type":[0,0,0,0,0,0,0,0,0,0,0,0,0,0,0,0,0,0,0,0,0,0,0,0,0,0,0,0,0,0,0,0,0],"sum_hessian":[8.7E1,3E0,8.4E1,1E0,2E0,7.7E1,7E0,3.6E1,4.1E1,4E0,3E0,1.5E1,2.1E1,3.6E1,5E0,1.1E1,4E0,1.5E1,6E0,5E0,3.1E1,2E0,3E0,6E0,5E0,3E0,1.2E1,5E0,1E0,4E0,1E0,3E0,2.8E1],"tree_param":{"num_deleted":"0","num_feature":"25","num_nodes":"33","size_leaf_vector":"0"}},{"base_weights":[9.797999E0,9.27486E1,7.7784686E0,1.9830442E1,5.195481E0,2.8548853E1,1.994687E0,9.29244E0,2.8680553E0,7.023519E0,3.3052246E1,5.14208E0,-8.6452925E-1,2.9348104E0,1.3759048E1,4.7164974E0,8.2309264E-1,2.2165527E0,8.318726E0,-2.7161648E0,6.5807086E-1,-3.7442424E0,4.6450453E0,1.9442636E1,4.4859996E0,6.421136E0,9.725689E-1,4.137592E0,-7.8508896E-1,-2.4114857E0,5.6970468E0,9.442154E0,2.2869186E1,7.380615E0,-1.8336931E0,6.1965436E-1,7.1533566E0,2.9305305E0,-4.9483362E-1,1.3777647E0,5.5179353E0,-2.8480332E0,1.8917274E0],"categories":[],"categories_nodes":[],"categories_segments":[],"categories_sizes":[],"default_left":[1,0,0,1,0,0,1,0,0,1,0,0,1,1,1,1,0,0,0,0,0,0,1,1,0,0,1,0,0,0,0,0,0,0,0,0,0,0,0,0,0,0,0],"id":13,"left_children":[1,-1,3,5,7,9,11,13,15,17,-1,-1,19,21,23,25,27,-1,-1,-1,-1,-1,29,31,33,35,37,39,41,-1,-1,-1,-1,-1,-1,-1,-1,-1,-1,-1,-1,-1,-1],"loss_changes":[1.4020431E4,0E0,2.6052905E3,2.275545E3,6.694308E2,7.3722705E2,5.843994E1,6.979431E2,1.7755762E2,2.39151E-1,0E0,0E0,1.3064632E1,1.5446515E2,7.0334326E2,1.5330615E2,1.3117598E2,0E0,0E0,0E0,0E0,0E0,8.7973175E1,9.246997E1,1.4158534E2,6.7782776E1,2.7308186E1,2.2873657E1,9.9263794E1,0E0,0E0,0E0,0E0,0E0,0E0,0E0,0E0,0E0,0E0,0E0,0E0,0E0,0E0],"parents":[2147483647,0,0,2,2,3,3,4,4,5,5,6,6,7,7,8,8,9,9,12,12,13,13,14,14,15,15,16,16,22,22,23,23,24,24,25,25,26,26,27,27,28,28],"right_children":[2,-1,4,6,8,10,12,14,16,18,-1,-1,20,22,24,26,28,-1,-1,-1,-1,-1,30,32,34,36,38,40,42,-1,-1,-1,-1,-1,-1,-1,-1,-1,-1,-1,-1,-1,-1],"split_conditions":[1.5E0,2.782458E1,2.880547E-1,3.8E1,4.8000526E-1,6.3815545E-3,5.9E1,3.589085E-1,5.608756E-3,1.9E1,9.915674E0,1.542624E0,6.3E1,8.731373E-1,2.033096E-1,5.3E1,2.5306463E-2,6.6496587E-1,2.4956179E0,-8.148495E-1,1.9742127E-1,-1.1232728E0,1.455E2,8.743926E-1,2.0409591E0,1.6853352E0,8.98638E-1,1.7399154E0,1.8254233E-3,-7.234457E-1,1.7091141E0,2.8326464E0,6.8607564E0,2.2141848E0,-5.5010796E-1,1.858963E-1,2.146007E0,8.791592E-1,-1.4845009E-1,4.1332942E-1,1.6553806E0,-8.5441E-1,5.6751823E-1],"split_indices":[0,0,20,0,6,8,0,6,24,0,0,0,0,2,17,0,8,0,0,0,0,0,1,2,3,3,2,3,9,0,0,0,0,0,0,0,0,0,0,0,0,0,0],"split_type":[0,0,0,0,0,0,0,0,0,0,0,0,0,0,0,0,0,0,0,0,0,0,0,0,0,0,0,0,0,0,0,0,0,0,0,0,0,0,0,0,0,0,0],"sum_hessian":[8.7E1,1E0,8.6E1,1.4E1,7.2E1,9E0,5E0,2.5E1,4.7E1,2E0,7E0,2E0,3E0,1.1E1,1.4E1,2.4E1,2.3E1,1E0,1E0,1E0,2E0,2E0,9E0,8E0,6E0,1.6E1,8E0,7E0,1.6E1,1E0,8E0,3E0,5E0,4E0,2E0,2E0,1.4E1,3E0,5E0,3E0,4E0,9E0,7E0],"tree_param":{"num_deleted":"0","num_feature":"25","num_nodes":"43","size_leaf_vector":"0"}},{"base_weights":[7.5164475E0,7.88363E1,5.790515E0,1.4814753E1,3.8568974E0,2.2497416E1,2.8206494E0,2.9248905E0,1.0159513E1,5.969991E0,2.6366682E1,5.6956635E0,-7.5952685E-1,4.782308E0,4.542235E-1,1.8801584E1,5.00441E0,1.8840637E0,7.070923E0,-2.30874E0,5.264575E-1,7.7627106E0,2.397365E0,4.063761E0,-4.6708694E-1,6.080182E0,1.5433197E0,1.0354187E1,2.9516428E0,3.4950488E0,-1.1122996E0,1.2615459E-1,6.001026E0,-1.8653013E0,1.6769432E0],"categories":[],"categories_nodes":[],"categories_segments":[],"categories_sizes":[],"default_left":[1,0,0,1,1,0,1,1,0,1,0,0,1,0,0,0,1,0,0,0,0,0,0,1,0,0,0,0,0,0,0,0,0,0,0],"id":14,"left_children":[1,-1,3,5,7,9,11,13,15,17,-1,-1,19,21,23,-1,25,-1,-1,-1,-1,27,29,31,33,-1,-1,-1,-1,-1,-1,-1,-1,-1,-1],"loss_changes":[1.0375705E4,0E0,1.4609607E3,1.3187427E3,3.9909253E2,4.1813232E2,7.637741E1,2.961167E2,3.068661E2,1.729126E-1,0E0,0E0,9.184507E0,2.4438928E2,9.833777E1,0E0,1.6679733E1,0E0,0E0,0E0,0E0,1.6892249E2,8.8642586E1,4.5012062E1,7.507553E1,0E0,0E0,0E0,0E0,0E0,0E0,0E0,0E0,0E0,0E0],"parents":[2147483647,0,0,2,2,3,3,4,4,5,5,6,6,7,7,8,8,9,9,12,12,13,13,14,14,16,16,21,21,22,22,23,23,24,24],"right_children":[2,-1,4,6,8,10,12,14,16,18,-1,-1,20,22,24,-1,26,-1,-1,-1,-1,28,30,32,34,-1,-1,-1,-1,-1,-1,-1,-1,-1,-1],"split_conditions":[1.5E0,2.3650892E1,2.880547E-1,3.15E1,2.757532E-1,6.3815545E-3,5.9E1,8.808862E-2,4.6553415E-1,1.9E1,7.910005E0,1.7086991E0,6.3E1,4.9230906E-1,6.156254E-2,5.6404753E0,1.3190573E-1,5.6521916E-1,2.1212769E0,-6.92622E-1,1.5793726E-1,4.7247335E-2,8.105813E-2,1.9533086E-1,1.1865984E-1,1.8240547E0,4.6299592E-1,3.1062562E0,8.8549286E-1,1.0485147E0,-3.3368987E-1,3.784638E-2,1.8003079E0,-5.595904E-1,5.03083E-1],"split_indices":[0,0,20,0,18,8,0,13,6,0,0,0,0,6,7,0,15,0,0,0,0,8,22,17,7,0,0,0,0,0,0,0,0,0,0],"split_type":[0,0,0,0,0,0,0,0,0,0,0,0,0,0,0,0,0,0,0,0,0,0,0,0,0,0,0,0,0,0,0,0,0,0,0],"sum_hessian":[8.7E1,1E0,8.6E1,1.4E1,7.2E1,8E0,6E0,6.4E1,8E0,2E0,6E0,3E0,3E0,3.6E1,2.8E1,2E0,6E0,1E0,1E0,1E0,2E0,1.5E1,2.1E1,5E0,2.3E1,4E0,2E0,9E0,6E0,1.6E1,5E0,2E0,3E0,1.4E1,9E0],"tree_param":{"num_deleted":"0","num_feature":"25","num_nodes":"35","size_leaf_vector":"0"}},{"base_weights":[5.8278394E0,6.7010864E1,4.3543463E0,3.2439806E0,1.3617072E1,1.0006602E1,2.6518226E0,6.687958E0,2.0606476E1,1.3670166E1,1.7863159E0,1.8602997E0,7.015971E0,7.279187E0,1.8659058E0,2.6401556E0,-6.442777E-1,3.561319E0,1.504127E1,1.5602767E0,5.2284045E0,-2.558987E0,1.1292725E0,-1.3384755E-1,4.6362023E0],"categories":[],"categories_nodes":[],"categories_segments":[],"categories_sizes":[],"default_left":[1,0,1,0,1,0,1,0,0,0,0,1,1,0,0,1,0,0,0,0,0,0,0,0,0],"id":15,"left_children":[1,-1,3,5,7,9,11,13,-1,-1,-1,15,17,-1,-1,19,21,23,-1,-1,-1,-1,-1,-1,-1],"loss_changes":[7.6416543E3,0E0,8.5062256E2,2.89823E2,2.980581E2,1.5627405E2,2.4256812E2,3.5233154E0,0E0,0E0,0E0,1.26706406E2,2.5140399E2,0E0,0E0,1.2879703E2,5.7223118E1,3.6367386E1,0E0,0E0,0E0,0E0,0E0,0E0,0E0],"parents":[2147483647,0,0,2,2,3,3,4,4,5,5,6,6,7,7,11,11,12,12,15,15,16,16,17,17],"right_children":[2,-1,4,6,8,10,12,14,-1,-1,-1,16,18,-1,-1,20,22,24,-1,-1,-1,-1,-1,-1,-1],"split_conditions":[1.5E0,2.010326E1,2.6166812E-1,1.6390184E0,4.5025E3,1.0221185E-1,1.814782E-1,5.8228932E-2,6.181943E0,4.10105E0,5.358948E-1,6.85E1,8.403219E-1,2.1837564E0,5.597718E-1,1.8463291E-1,6.063364E-4,2.1284646E-3,4.512381E0,4.6808305E-1,1.5685214E0,-7.676961E-1,3.3878174E-1,-4.0154267E-2,1.3908608E0],"split_indices":[0,0,4,3,1,4,7,7,0,0,0,0,12,0,0,5,9,9,0,0,0,0,0,0,0],"split_type":[0,0,0,0,0,0,0,0,0,0,0,0,0,0,0,0,0,0,0,0,0,0,0,0,0],"sum_hessian":[8.7E1,1E0,8.6E1,7.8E1,8E0,5E0,7.3E1,5E0,3E0,3E0,2E0,6.3E1,1E1,4E0,1E0,4.8E1,1.5E1,8E0,2E0,3.5E1,1.3E1,7E0,8E0,2E0,6E0],"tree_param":{"num_deleted":"0","num_feature":"25","num_nodes":"25","size_leaf_vector":"0"}},{"base_weights":[4.546949E0,5.695923E1,3.2898052E0,2.424049E0,1.0523688E1,7.1440887E0,1.8659327E0,5.1388345E0,1.5970047E1,1.9638793E0,1.1833328E1,1.200986E0,5.4441833E0,3.203827E0,8.529358E-1,1.8815702E0,-7.112407E-1,2.6429987E0,1.203301E1,1.004069E0,1.9976807E-1,2.6560216E0,1.0396894E-1,-2.6984267E0,1.354972E0,3.2089615E0,-9.423523E-1],"categories":[],"categories_nodes":[],"categories_segments":[],"categories_sizes":[],"default_left":[1,0,1,1,1,0,1,0,0,0,0,0,1,0,1,1,1,0,0,0,0,0,0,0,0,0,0],"id":16,"left_children":[1,-1,3,5,7,9,11,-1,-1,13,-1,15,17,-1,19,21,23,25,-1,-1,-1,-1,-1,-1,-1,-1,-1],"loss_changes":[5.610915E3,0E0,5.1935205E2,1.9478177E2,1.8188318E2,1.7109073E2,1.6477449E2,0E0,0E0,4.1549015E0,0E0,8.202698E1,1.712185E2,0E0,1.9428039E-1,6.305049E1,7.345742E1,2.1286552E1,0E0,0E0,0E0,0E0,0E0,0E0,0E0,0E0,0E0],"parents":[2147483647,0,0,2,2,3,3,4,4,5,5,6,6,9,9,11,11,12,12,14,14,15,15,16,16,17,17],"right_children":[2,-1,4,6,8,10,12,-1,-1,14,-1,16,18,-1,20,22,24,26,-1,-1,-1,-1,-1,-1,-1,-1,-1],"split_conditions":[1.5E0,1.7087769E1,2.6166812E-1,2.0246232E-2,4.5025E3,3.925237E-2,1.814782E-1,1.5416504E0,4.791014E0,1.5828653E-3,3.5499985E0,1.4386147E-1,8.403219E-1,9.611481E-1,5.95E1,6.6711353E-3,9.475814E-1,1.1610228E-1,3.609903E0,3.0122072E-1,5.993042E-2,7.968065E-1,3.1190684E-2,-8.0952805E-1,4.064916E-1,9.626885E-1,-2.827057E-1],"split_indices":[0,0,4,13,1,7,7,0,0,8,0,21,12,0,0,11,2,5,0,0,0,0,0,0,0,0,0],"split_type":[0,0,0,0,0,0,0,0,0,0,0,0,0,0,0,0,0,0,0,0,0,0,0,0,0,0,0],"sum_hessian":[8.7E1,1E0,8.6E1,7.8E1,8E0,7E0,7.1E1,5E0,3E0,4E0,3E0,6.1E1,1E1,1E0,3E0,4.5E1,1.6E1,8E0,2E0,2E0,1E0,3.1E1,1.4E1,8E0,8E0,7E0,1E0],"tree_param":{"num_deleted":"0","num_feature":"25","num_nodes":"27","size_leaf_vector":"0"}},{"base_weights":[3.5579488E0,4.8415344E1,2.4858484E0,6.6934495E0,1.5872202E0,1.0401774E1,9.6939623E-1,1.0624537E0,5.200843E0,2.7203777E0,1.2207833E1,3.2212932E0,-5.756211E-1,4.4844155E0,7.0254993E-1,1.646876E0,9.231583E0,6.6656494E-1,3.4140015E0,-1.7917063E0,1.7632675E-1,6.5667725E-1,6.2341156E0,4.2206993E0,4.433368E-1,2.1444435E0,4.3449402E-1,5.383301E-1,-1.23784386E-1,8.1521606E-1,1.697998E-1,-6.5551676E-2,2.1707711E0],"categories":[],"categories_nodes":[],"categories_segments":[],"categories_sizes":[],"default_left":[1,0,0,1,1,0,1,1,0,1,0,0,1,1,0,0,0,0,0,0,1,1,0,0,1,0,0,0,0,0,0,0,0],"id":17,"left_children":[1,-1,3,5,7,9,11,13,15,17,-1,-1,19,21,23,25,-1,-1,-1,-1,27,29,-1,-1,31,-1,-1,-1,-1,-1,-1,-1,-1],"loss_changes":[4.1117104E3,0E0,3.1832904E2,3.0831628E2,1.3290483E2,9.1647644E1,2.6208784E1,7.690198E1,1.1372275E2,1.9980679E0,0E0,0E0,4.888089E0,3.6090553E1,5.2845833E1,2.687704E0,0E0,0E0,0E0,0E0,5.0120175E-1,9.3143344E-2,0E0,0E0,5.024937E1,0E0,0E0,0E0,0E0,0E0,0E0,0E0,0E0],"parents":[2147483647,0,0,2,2,3,3,4,4,5,5,6,6,7,7,8,8,9,9,12,12,13,13,14,14,15,15,20,20,21,21,24,24],"right_children":[2,-1,4,6,8,10,12,14,16,18,-1,-1,20,22,24,26,-1,-1,-1,-1,28,30,-1,-1,32,-1,-1,-1,-1,-1,-1,-1,-1],"split_conditions":[1.5E0,1.4524604E1,2.880547E-1,3.15E1,2.757532E-1,4.10749E-2,5.05E1,2.0246232E-2,5.8626175E-2,1.85E1,3.6623502E0,9.66388E-1,2.08E2,1.6557233E-2,4.3581617E-3,3.8518574E-2,2.769475E0,1.9996949E-1,1.0242004E0,-5.3751194E-1,6.2E1,3.65E1,1.8702347E0,1.2662098E0,1.5096898E-1,6.433331E-1,1.303482E-1,1.6149902E-1,-3.7135318E-2,2.4456483E-1,5.0939944E-2,-1.9665504E-2,6.5123135E-1],"split_indices":[0,0,20,0,18,7,0,13,8,0,0,0,1,13,7,8,0,0,0,0,0,0,0,0,4,0,0,0,0,0,0,0,0],"split_type":[0,0,0,0,0,0,0,0,0,0,0,0,0,0,0,0,0,0,0,0,0,0,0,0,0,0,0,0,0,0,0,0,0],"sum_hessian":[8.7E1,1E0,8.6E1,1.4E1,7.2E1,8E0,6E0,6.4E1,8E0,2E0,6E0,2E0,4E0,5E0,5.9E1,5E0,3E0,1E0,1E0,1E0,3E0,2E0,3E0,3E0,5.6E1,3E0,2E0,1E0,2E0,1E0,1E0,4.4E1,1.2E1],"tree_param":{"num_deleted":"0","num_feature":"25","num_nodes":"33","size_leaf_vector":"0"}},{"base_weights":[2.803869E0,4.1153015E1,1.890051E0,1.3473386E0,6.4438543E0,3.155892E0,6.8077993E-1,3.2343228E0,1.178481E1,7.427025E-1,5.7361298E0,4.774376E0,3.7622342E-1,6.929321E-1,3.5423992E0,2.2385974E0,-1.1262919E0,2.1601746E0,7.760071E0,-3.6834252E-1,1.4605286E0,3.2302063E0,-1.602834E-1,1.4433289E-1,-1.4092834E0,8.885218E0,1.0671692E0,-1.8751825E0,7.802046E-1,1.8291244E-1,3.8331947E0],"categories":[],"categories_nodes":[],"categories_segments":[],"categories_sizes":[],"default_left":[1,0,1,1,1,0,1,1,0,1,0,0,1,0,0,0,1,0,1,1,0,0,0,0,0,0,0,0,0,0,0],"id":18,"left_children":[1,-1,3,5,7,9,11,13,-1,15,17,-1,19,-1,-1,21,23,-1,25,27,29,-1,-1,-1,-1,-1,-1,-1,-1,-1,-1],"loss_changes":[3.006103E3,0E0,2.0633029E2,9.308655E1,1.16161804E2,1.2649841E2,7.176092E1,3.0259628E0,0E0,3.6071144E1,5.561209E1,0E0,4.574883E1,0E0,0E0,1.7169006E1,2.3608623E0,0E0,3.570096E1,6.030603E1,6.9020065E1,0E0,0E0,0E0,0E0,0E0,0E0,0E0,0E0,0E0,0E0],"parents":[2147483647,0,0,2,2,3,3,4,4,5,5,6,6,7,7,9,9,10,10,12,12,15,15,16,16,18,18,19,19,20,20],"right_children":[2,-1,4,6,8,10,12,14,-1,16,18,-1,20,-1,-1,22,24,-1,26,28,30,-1,-1,-1,-1,-1,-1,-1,-1,-1,-1],"split_conditions":[1.5E0,1.2345905E1,3.3444226E-1,2.0720809E-5,4.81E3,4.062067E-2,1.521953E-1,1.95E1,3.535443E0,4E1,2.819969E-2,1.4323128E0,2.3431143E-1,2.0787965E-1,1.0627198E0,3.6219813E-2,2.0235E3,6.480524E-1,5.387E3,2.308405E-1,3.642458E-1,9.690619E-1,-4.8085023E-2,4.329987E-2,-4.2278504E-1,2.6655655E0,3.2015076E-1,-5.625548E-1,2.3406139E-1,5.4873735E-2,1.1499585E0],"split_indices":[0,0,16,11,1,7,17,0,0,0,8,0,18,0,0,7,1,0,1,10,20,0,0,0,0,0,0,0,0,0,0],"split_type":[0,0,0,0,0,0,0,0,0,0,0,0,0,0,0,0,0,0,0,0,0,0,0,0,0,0,0,0,0,0,0],"sum_hessian":[8.7E1,1E0,8.6E1,7.8E1,8E0,2E1,5.8E1,6E0,2E0,1.1E1,9E0,3E0,5.5E1,1E0,5E0,6E0,5E0,4E0,5E0,3.3E1,2.2E1,4E0,2E0,1E0,4E0,4E0,1E0,1.4E1,1.9E1,1.5E1,7E0],"tree_param":{"num_deleted":"0","num_feature":"25","num_nodes":"31","size_leaf_vector":"0"}},{"base_weights":[2.231296E0,3.498004E1,1.4528042E0,1.0252111E0,5.044698E0,1.5602435E0,-4.3192932E-1,2.4455304E0,9.427856E0,2.2750764E0,-2.9759336E-1,-1.0308391E0,1.33697E0,5.8898926E-1,2.656789E0,2.7514727E0,-1.0418797E0,1.3432935E0,-1.0932374E0,-2.8531828E0,-4.3653816E-1,-1.9953918E-1,1.6841797E0,2.1267662E0,5.624662E0,9.9046326E-1,-2.305667E0,4.193929E-1,1.7003956E0,-4.7024E-1,-2.221672E0,-1.6229553E0,4.0291086E-1],"categories":[],"categories_nodes":[],"categories_segments":[],"categories_sizes":[],"default_left":[1,0,1,0,1,1,1,1,0,0,0,1,1,0,0,0,1,1,1,0,1,0,0,0,0,0,0,0,0,0,0,0,0],"id":19,"left_children":[1,-1,3,5,7,9,11,13,-1,15,17,19,21,-1,-1,23,25,27,29,-1,31,-1,-1,-1,-1,-1,-1,-1,-1,-1,-1,-1,-1],"loss_changes":[2.1927083E3,0E0,1.284487E2,6.2263687E1,7.947696E1,7.770354E1,2.4685246E1,1.1806488E0,0E0,6.923451E1,2.366309E1,1.7165827E1,3.5370054E0,0E0,0E0,5.4448944E1,1.7694374E1,1.2664261E0,7.391423E0,0E0,1.4597021E1,0E0,0E0,0E0,0E0,0E0,0E0,0E0,0E0,0E0,0E0,0E0,0E0],"parents":[2147483647,0,0,2,2,3,3,4,4,5,5,6,6,7,7,9,9,10,10,11,11,12,12,15,15,16,16,17,17,18,18,20,20],"right_children":[2,-1,4,6,8,10,12,14,-1,16,18,20,22,-1,-1,24,26,28,30,-1,32,-1,-1,-1,-1,-1,-1,-1,-1,-1,-1,-1,-1],"split_conditions":[1.5E0,1.0494013E1,3.3444226E-1,8.943204E-3,4.81E3,5.95E1,1.5096898E-1,1.95E1,2.828357E0,1.1180109E-1,3.7799817E-1,4.7543224E-2,6.35E1,1.7669678E-1,7.9703677E-1,2.0622913E-2,2.55E1,8.35E1,1.5309174E-1,-8.559549E-1,3.0414297E-4,-5.9861757E-2,5.052539E-1,6.380299E-1,1.6873987E0,2.97139E-1,-6.917001E-1,1.2581788E-1,5.101187E-1,-1.41072E-1,-6.6650164E-1,-4.8688662E-1,1.20873265E-1],"split_indices":[0,0,16,24,1,0,4,0,0,22,19,13,0,0,0,23,0,0,14,0,11,0,0,0,0,0,0,0,0,0,0,0,0],"split_type":[0,0,0,0,0,0,0,0,0,0,0,0,0,0,0,0,0,0,0,0,0,0,0,0,0,0,0,0,0,0,0,0,0],"sum_hessian":[8.7E1,1E0,8.6E1,7.8E1,8E0,5.7E1,2.1E1,6E0,2E0,4.1E1,1.6E1,1.6E1,5E0,1E0,5E0,3.6E1,5E0,5E0,1.1E1,3E0,1.3E1,1E0,4E0,3.1E1,5E0,2E0,3E0,2E0,3E0,8E0,3E0,5E0,8E0],"tree_param":{"num_deleted":"0","num_feature":"25","num_nodes":"33","size_leaf_vector":"0"}},{"base_weights":[1.7355345E0,2.9733032E1,1.0719652E0,7.300908E-1,3.9537556E0,2.7830641E0,4.595718E-1,1.8509958E0,7.542277E0,8.339589E-1,5.010956E0,8.089055E-2,2.5177522E0,5.0064087E-1,1.9926147E0,2.4320221E-1,1.3436483E0,5.656128E0,1.5377197E0,6.5237415E-1,-4.5740312E-1,1.1520038E0,5.775747E0,3.09906E-1,2.154541E-2,1.9570401E-2,1.5999489E0,-3.144371E0,-7.101434E-2,1.4385862E0,-5.7032776E-1],"categories":[],"categories_nodes":[],"categories_segments":[],"categories_sizes":[],"default_left":[1,0,1,1,1,0,1,1,0,1,1,0,1,0,0,1,0,0,0,1,1,0,0,0,0,0,0,0,0,0,0],"id":20,"left_children":[1,-1,3,5,7,9,11,13,-1,15,17,19,21,-1,-1,23,-1,-1,-1,25,27,29,-1,-1,-1,-1,-1,-1,-1,-1,-1],"loss_changes":[1.6030159E3,0E0,8.2826706E1,4.259508E1,5.395146E1,3.4902626E1,5.513333E1,3.4106827E-1,0E0,1.4798365E0,2.6580048E-1,1.9063585E1,4.229193E1,0E0,0E0,5.2464336E-2,0E0,0E0,0E0,1.7957554E1,3.299956E1,5.2627735E0,0E0,0E0,0E0,0E0,0E0,0E0,0E0,0E0,0E0],"parents":[2147483647,0,0,2,2,3,3,4,4,5,5,6,6,7,7,9,9,10,10,11,11,12,12,15,15,19,19,20,20,21,21],"right_children":[2,-1,4,6,8,10,12,14,-1,16,18,20,22,-1,-1,24,-1,-1,-1,26,28,30,-1,-1,-1,-1,-1,-1,-1,-1,-1],"split_conditions":[1.5E0,8.91991E0,3.3444226E-1,2.0246232E-2,4.81E3,3.925237E-2,1.814782E-1,1.95E1,2.2626832E0,1.6557233E-2,4.0355E3,6.908879E-2,8.403219E-1,1.5019226E-1,5.9778446E-1,3.551E3,4.030945E-1,1.6968385E0,4.6131593E-1,1.9616386E-1,1.7463824E-1,1.1610228E-1,1.7327241E0,9.29718E-2,6.463623E-3,5.8711204E-3,4.7998467E-1,-9.4331133E-1,-2.1304302E-2,4.315759E-1,-1.7109834E-1],"split_indices":[0,0,16,13,1,7,7,0,0,13,1,7,12,0,0,1,0,0,0,17,17,5,0,0,0,0,0,0,0,0,0],"split_type":[0,0,0,0,0,0,0,0,0,0,0,0,0,0,0,0,0,0,0,0,0,0,0,0,0,0,0,0,0,0,0],"sum_hessian":[8.7E1,1E0,8.6E1,7.8E1,8E0,8E0,7E1,6E0,2E0,5E0,3E0,6E1,1E1,1E0,5E0,3E0,2E0,2E0,1E0,2.9E1,3.1E1,8E0,2E0,2E0,1E0,1.8E1,1.1E1,3E0,2.8E1,7E0,1E0],"tree_param":{"num_deleted":"0","num_feature":"25","num_nodes":"31","size_leaf_vector":"0"}},{"base_weights":[1.3978927E0,2.5273071E1,8.329704E-1,1.5142839E0,-1.7428721E-1,3.004694E0,7.684157E-1,-8.400992E-1,6.1927325E-1,3.860546E0,-7.4196243E-1,2.4502766E0,4.1810662E-1,-3.6119515E-1,-1.6778933E0,1.6470318E0,-2.6486093E-1,1.3750992E0,6.1495504E0,-2.2158356E0,4.8794046E-1,3.352707E0,4.302775E-1,-1.7968083E-2,1.9157867E0,-7.4730057E-1,7.9089355E-1,-7.308553E-1,-1.9105374E0,2.1047337E0,1.8261719E-1,-1.7709169E0,6.335798E-1,1.7236227E0,2.1968587E-1,7.5808167E0,1.7142563E0,6.271057E-1,1.8310547E-2,9.2388576E-1,-5.1553965E-1,2.5064087E0,2.9282126E-1,-1.1915044E0,2.40448E-2,2.9847717E-1,-2.4551392E-2,9.597168E-1,1.4904785E-1],"categories":[],"categories_nodes":[],"categories_segments":[],"categories_sizes":[],"default_left":[1,0,0,0,1,1,0,1,0,0,1,0,0,1,1,1,1,1,0,0,0,0,1,0,1,0,0,0,0,0,1,0,0,0,0,0,0,0,0,0,0,0,0,0,0,0,0,0,0],"id":21,"left_children":[1,-1,3,5,7,9,11,13,15,17,19,21,23,25,27,29,31,33,35,-1,-1,-1,37,39,41,43,-1,-1,-1,-1,45,-1,47,-1,-1,-1,-1,-1,-1,-1,-1,-1,-1,-1,-1,-1,-1,-1,-1],"loss_changes":[1.1658591E3,0E0,5.9968384E1,5.5496902E1,1.9541288E1,5.7376312E1,2.0185688E1,7.4184113E0,1.5883734E1,7.119252E1,8.33208E0,9.494854E0,2.0280537E1,6.818623E0,1.4593506E-1,4.977764E0,1.4653037E1,2.8428535E0,3.1441132E1,0E0,0E0,0E0,2.3177755E-1,1.2192292E1,5.9759827E0,3.797628E0,0E0,0E0,0E0,0E0,7.933569E-2,0E0,9.6312284E-1,0E0,0E0,0E0,0E0,0E0,0E0,0E0,0E0,0E0,0E0,0E0,0E0,0E0,0E0,0E0,0E0],"parents":[2147483647,0,0,2,2,3,3,4,4,5,5,6,6,7,7,8,8,9,9,10,10,11,11,12,12,13,13,14,14,15,15,16,16,17,17,18,18,22,22,23,23,24,24,25,25,30,30,32,32],"right_children":[2,-1,4,6,8,10,12,14,16,18,20,22,24,26,28,30,32,34,36,-1,-1,-1,38,40,42,44,-1,-1,-1,-1,46,-1,48,-1,-1,-1,-1,-1,-1,-1,-1,-1,-1,-1,-1,-1,-1,-1,-1],"split_conditions":[1.5E0,7.5819216E0,8.084891E-2,4.5770574E-1,9.808271E-2,2.4553E-2,1.6390184E0,9.057461E-2,2.2303183E0,1.7582128E0,1.9E1,1.0221185E-1,7.439059E-2,1.3325933E-1,4.65E1,1.6815144E-1,1.6652155E-1,9.3549013E-1,1.975944E0,-6.647507E-1,1.4638214E-1,1.0058122E0,3.3E1,5.371491E-1,6.15E1,1.0706699E-1,2.3726808E-1,-2.192566E-1,-5.7316124E-1,6.3142014E-1,8.05E1,-5.312751E-1,1.3189942E-1,5.170868E-1,6.5905765E-2,2.274245E0,5.142769E-1,1.8813172E-1,5.493164E-3,2.7716574E-1,-1.546619E-1,7.5192267E-1,8.784638E-2,-3.5745132E-1,7.2134403E-3,8.954316E-2,-7.3654177E-3,2.8791505E-1,4.4714358E-2],"split_indices":[0,0,22,6,22,11,3,22,3,3,0,4,22,13,0,13,14,2,3,0,0,0,0,6,0,4,0,0,0,0,0,0,7,0,0,0,0,0,0,0,0,0,0,0,0,0,0,0,0],"split_type":[0,0,0,0,0,0,0,0,0,0,0,0,0,0,0,0,0,0,0,0,0,0,0,0,0,0,0,0,0,0,0,0,0,0,0,0,0,0,0,0,0,0,0,0,0,0,0,0,0],"sum_hessian":[8.7E1,1E0,8.6E1,5.1E1,3.5E1,1.6E1,3.5E1,1.9E1,1.6E1,1.3E1,3E0,5E0,3E1,1.3E1,6E0,7E0,9E0,7E0,6E0,1E0,2E0,3E0,2E0,2.4E1,6E0,1E1,3E0,2E0,4E0,5E0,2E0,3E0,6E0,5E0,2E0,4E0,2E0,1E0,1E0,8E0,1.6E1,4E0,2E0,6E0,4E0,1E0,1E0,3E0,3E0],"tree_param":{"num_deleted":"0","num_feature":"25","num_nodes":"49","size_leaf_vector":"0"}},{"base_weights":[1.1172336E0,2.1482117E1,6.362336E-1,4.0741855E-1,2.574029E0,2.4792542E-1,2.0125012E0,7.9784137E-1,4.594803E0,1.6483704E0,2.5232054E-2,4.7673798E0,7.587916E-1,1.6699219E-1,8.906128E-1,5.857951E-1,2.5937867E0,5.5160904E-1,-2.636228E-1,1.2312012E0,-1.2401835E-1,1.631012E-1,9.541219E-1,8.9145917E-1,3.4315186E0,1.0879701E0,-2.544574E-1,5.7895493E-2,-1.448956E0,1.4153646E0,3.3935547E-1,-3.0605316E-1,1.20025635E-1],"categories":[],"categories_nodes":[],"categories_segments":[],"categories_sizes":[],"default_left":[1,0,1,1,1,1,1,1,0,0,1,0,1,0,0,1,0,0,1,1,1,0,0,0,0,0,0,0,0,0,0,0,0],"id":22,"left_children":[1,-1,3,5,7,9,11,13,-1,15,17,-1,19,-1,-1,21,23,25,27,29,31,-1,-1,-1,-1,-1,-1,-1,-1,-1,-1,-1,-1],"loss_changes":[8.4833716E2,0E0,3.752681E1,1.9725023E1,2.8637535E1,2.2724903E1,2.0559277E1,2.024231E-1,0E0,8.526333E0,9.876395E0,0E0,2.6549785E0,0E0,0E0,7.7851844E-1,4.071411E0,1.0220726E1,1.6090351E1,1.7667007E-1,1.7000772E-1,0E0,0E0,0E0,0E0,0E0,0E0,0E0,0E0,0E0,0E0,0E0,0E0],"parents":[2147483647,0,0,2,2,3,3,4,4,5,5,6,6,7,7,9,9,10,10,12,12,15,15,16,16,17,17,18,18,19,19,20,20],"right_children":[2,-1,4,6,8,10,12,14,-1,16,18,-1,20,-1,-1,22,24,26,28,30,32,-1,-1,-1,-1,-1,-1,-1,-1,-1,-1,-1,-1],"split_conditions":[1.5E0,6.4446354E0,3.3444226E-1,2.1049795E-1,4.336E3,2.244664E-2,2.4265E3,2E1,1.3784409E0,3.925237E-2,2.604164E-1,1.4302139E0,6.6E1,5.009766E-2,2.6718384E-1,1.6557233E-2,7.5904853E-3,1.4409219E-1,6.5355504E-1,5.7E1,7.55E1,4.8930362E-2,2.8623658E-1,2.6743776E-1,1.0294557E0,3.2639104E-1,-7.6337226E-2,1.7368648E-2,-4.346868E-1,4.246094E-1,1.0180665E-1,-9.181595E-2,3.600769E-2],"split_indices":[0,0,16,7,1,13,1,0,0,7,16,0,0,0,0,13,23,21,6,0,0,0,0,0,0,0,0,0,0,0,0,0,0],"split_type":[0,0,0,0,0,0,0,0,0,0,0,0,0,0,0,0,0,0,0,0,0,0,0,0,0,0,0,0,0,0,0,0,0],"sum_hessian":[8.7E1,1E0,8.6E1,7.8E1,8E0,7.2E1,6E0,5E0,3E0,9E0,6.3E1,1E0,5E0,1E0,4E0,5E0,4E0,2.2E1,4.1E1,3E0,2E0,3E0,2E0,2E0,2E0,1.3E1,9E0,3.3E1,8E0,2E0,1E0,1E0,1E0],"tree_param":{"num_deleted":"0","num_feature":"25","num_nodes":"33","size_leaf_vector":"0"}},{"base_weights":[9.128134E-1,1.8259827E1,5.035394E-1,9.088099E-1,-2.2141963E-1,1.3586723E0,-1.16381325E-1,-1.3367506E0,3.4632437E-2,6.2584203E-1,3.1671636E0,9.93778E-2,-1.8921432E0,-1.6911316E-1,-1.5364555E0,6.562703E-1,-2.6165038E-1,-8.2118326E-1,9.615216E-1,4.3912416E0,1.4152247E0,7.0406723E-1,-3.9431152E-1,8.158286E-1,6.5210976E-2,1.570681E-1,-1.0018919E0,-1.4985118E0,-1.0789108E-1,1.504425E0,1.8314257E-1,1.3635584E0,5.5641937E0,-3.0385336E-2,2.145626E0,9.65566E-1,-5.3619385E-2,5.2186584E-1,-5.540941E-1,3.0196127E-1,9.609833E-1,1.0202026E-1,-4.2037964E-3,7.084401E-1,-2.7609444E-1,1.5061696E-1,-1.4930187E0],"categories":[],"categories_nodes":[],"categories_segments":[],"categories_sizes":[],"default_left":[1,0,1,0,1,1,1,1,1,1,0,0,0,0,0,0,0,0,1,1,0,1,0,1,1,0,1,0,0,0,0,0,0,0,0,0,0,0,0,0,0,0,0,0,0,0,0],"id":23,"left_children":[1,-1,3,5,7,9,11,13,15,17,19,21,-1,-1,-1,23,25,27,29,31,33,35,37,39,41,43,45,-1,-1,-1,-1,-1,-1,-1,-1,-1,-1,-1,-1,-1,-1,-1,-1,-1,-1,-1,-1],"loss_changes":[6.1557745E2,0E0,2.576222E1,2.5985043E1,9.184944E0,4.970523E1,7.0845003E0,1.1392632E0,5.1445904E0,1.4875957E1,1.7375008E1,5.35261E0,0E0,0E0,0E0,7.9557467E-1,6.0464683E0,2.7371225E0,9.866507E0,1.3720863E1,6.400448E0,1.6368461E0,1.7530549E0,2.3195171E-1,8.094196E-3,3.3004346E0,4.1870704E0,0E0,0E0,0E0,0E0,0E0,0E0,0E0,0E0,0E0,0E0,0E0,0E0,0E0,0E0,0E0,0E0,0E0,0E0,0E0,0E0],"parents":[2147483647,0,0,2,2,3,3,4,4,5,5,6,6,7,7,8,8,9,9,10,10,11,11,15,15,16,16,17,17,18,18,19,19,20,20,21,21,22,22,23,23,24,24,25,25,26,26],"right_children":[2,-1,4,6,8,10,12,14,16,18,20,22,-1,-1,-1,24,26,28,30,32,34,36,38,40,42,44,46,-1,-1,-1,-1,-1,-1,-1,-1,-1,-1,-1,-1,-1,-1,-1,-1,-1,-1,-1,-1],"split_conditions":[1.5E0,5.477948E0,8.808862E-2,7.84556E-3,1.077245E-1,1.3951908E-1,9.385975E-3,8.158685E-1,8.9297175E-1,1.5313317E-1,4.8863664E-1,4.7924417E-1,-5.67643E-1,-5.073395E-2,-4.6093667E-1,1.485912E-1,2.2593565E-2,8.503083E-2,3.6E1,2.1865E3,1.8834594E0,1.7392384E-1,9.37203E-3,1.9405165E-1,7.85E1,5.4384723E-2,4.7E1,-4.4955355E-1,-3.2367326E-2,4.5132753E-1,5.4942776E-2,4.0906754E-1,1.6692582E0,-9.115601E-3,6.4368784E-1,2.896698E-1,-1.6085817E-2,1.5655977E-1,-1.6622823E-1,9.058838E-2,2.88295E-1,3.060608E-2,-1.2611389E-3,2.1253204E-1,-8.2828335E-2,4.518509E-2,-4.4790563E-1],"split_indices":[0,0,13,24,13,14,9,2,2,10,6,6,0,0,0,4,23,5,0,1,3,15,4,10,0,4,0,0,0,0,0,0,0,0,0,0,0,0,0,0,0,0,0,0,0,0,0],"split_type":[0,0,0,0,0,0,0,0,0,0,0,0,0,0,0,0,0,0,0,0,0,0,0,0,0,0,0,0,0,0,0,0,0,0,0,0,0,0,0,0,0,0,0,0,0,0,0],"sum_hessian":[8.7E1,1E0,8.6E1,5.5E1,3.1E1,3.8E1,1.7E1,5E0,2.6E1,2.8E1,1E1,1.6E1,1E0,1E0,4E0,8E0,1.8E1,5E0,2.3E1,5E0,5E0,7E0,9E0,6E0,2E0,1.2E1,6E0,2E0,3E0,1.3E1,1E1,2E0,3E0,2E0,3E0,5E0,2E0,1E0,8E0,2E0,4E0,1E0,1E0,5E0,7E0,2E0,4E0],"tree_param":{"num_deleted":"0","num_feature":"25","num_nodes":"47","size_leaf_vector":"0"}},{"base_weights":[7.245959E-1,1.5520874E1,3.7612292E-1,8.8545835E-1,1.6272912E-2,3.1938693E-1,2.142949E0,2.795363E-1,-7.1826607E-1,-3.7692204E-1,7.781377E-1,9.873152E-1,3.91848E0,9.450368E-1,-1.3094543E-1,-1.0387787E0,6.641235E-2,2.9503086E-1,-1.2422717E0,4.8493257E-1,1.3262024E0,2.2785237E0,1.7715836E-1,5.047241E0,2.6609802E-1,1.1239495E0,-1.4526367E-1,5.147751E-1,-5.2633667E-1,1.5107727E-1,-1.3551273E0,-2.1873474E-1,1.9238281E-1,-3.0348715E-1,5.951355E-1,6.621221E-1,-3.497696E-2,2.851715E-1,-2.5911966E-2,2.8497696E-1,1.3471435E0,-2.1432495E-1,-3.5705566E-3,1.0043055E0,-1.7561646E-1,-8.3211976E-1,-1.4312744E-2,3.119812E-1,-8.5365295E-2,-1.7317047E0,-5.456238E-1,3.3294678E-2,2.3431396E-1],"categories":[],"categories_nodes":[],"categories_segments":[],"categories_sizes":[],"default_left":[1,0,0,0,1,0,0,0,0,0,0,0,1,0,1,1,1,0,0,1,0,0,0,0,0,1,1,0,0,1,0,0,1,0,0,0,0,0,0,0,0,0,0,0,0,0,0,0,0,0,0,0,0],"id":24,"left_children":[1,-1,3,5,7,9,11,13,15,17,19,21,23,25,27,29,31,33,-1,35,-1,-1,37,-1,-1,39,41,43,45,47,49,-1,51,-1,-1,-1,-1,-1,-1,-1,-1,-1,-1,-1,-1,-1,-1,-1,-1,-1,-1,-1,-1],"loss_changes":[4.4789938E2,0E0,1.593133E1,2.4941437E1,1.0256398E1,8.5985365E0,1.8701729E1,1.0777606E1,3.5899777E0,6.762725E0,1.9280071E0,7.9649925E0,1.5147606E1,3.0892963E0,6.653751E0,3.9688225E0,2.2168136E-1,1.437942E0,0E0,1.1286292E0,0E0,0E0,1.3899493E-1,0E0,0E0,2.050394E0,2.859126E-2,3.5560493E0,2.4931817E0,1.4076598E-1,1.4938669E0,0E0,1.888159E-2,0E0,0E0,0E0,0E0,0E0,0E0,0E0,0E0,0E0,0E0,0E0,0E0,0E0,0E0,0E0,0E0,0E0,0E0,0E0,0E0],"parents":[2147483647,0,0,2,2,3,3,4,4,5,5,6,6,7,7,8,8,9,9,10,10,11,11,12,12,13,13,14,14,15,15,16,16,17,17,19,19,22,22,25,25,26,26,27,27,28,28,29,29,30,30,32,32],"right_children":[2,-1,4,6,8,10,12,14,16,18,20,22,24,26,28,30,32,34,-1,36,-1,-1,38,-1,-1,40,42,44,46,48,50,-1,52,-1,-1,-1,-1,-1,-1,-1,-1,-1,-1,-1,-1,-1,-1,-1,-1,-1,-1,-1,-1],"split_conditions":[1.5E0,4.6562624E0,3.7789182E-3,2.7648981E-3,5.6676593E-2,3.652301E-4,3.7503862E-3,5.2057874E-1,1.7424282E-1,5.3248927E-2,7.888755E-2,1.6633164E0,4.35E1,2.109684E-2,2.5986505E-1,1.7509459E-1,3.44E3,2.8319575E-2,-3.726815E-1,8.4209496E-1,3.9786074E-1,6.8355715E-1,4.765473E-2,1.5141724E0,7.982941E-2,1.8254778E-1,7.45E1,2.083298E0,1.1212021E-1,2.45E1,5.121944E-1,-6.562042E-2,2.95E1,-9.104615E-2,1.7854066E-1,1.9863664E-1,-1.04930885E-2,8.5551456E-2,-7.7735903E-3,8.549309E-2,4.0414307E-1,-6.429749E-2,-1.0711671E-3,3.0129164E-1,-5.268494E-2,-2.4963593E-1,-4.2938236E-3,9.3594365E-2,-2.560959E-2,-5.1951146E-1,-1.6368714E-1,9.988404E-3,7.0294194E-2],"split_indices":[0,0,24,24,8,24,9,6,7,7,22,3,0,24,16,10,1,4,0,12,0,0,7,0,0,17,0,3,4,0,6,0,0,0,0,0,0,0,0,0,0,0,0,0,0,0,0,0,0,0,0,0,0],"split_type":[0,0,0,0,0,0,0,0,0,0,0,0,0,0,0,0,0,0,0,0,0,0,0,0,0,0,0,0,0,0,0,0,0,0,0,0,0,0,0,0,0,0,0,0,0,0,0,0,0,0,0,0,0],"sum_hessian":[8.7E1,1E0,8.6E1,3.5E1,5.1E1,2.5E1,1E1,3.8E1,1.3E1,1E1,1.5E1,7E0,3E0,1.4E1,2.4E1,9E0,4E0,6E0,4E0,1.1E1,4E0,2E0,5E0,2E0,1E0,1.2E1,2E0,9E0,1.5E1,2E0,7E0,1E0,3E0,2E0,4E0,8E0,3E0,3E0,2E0,3E0,9E0,1E0,1E0,5E0,4E0,9E0,6E0,1E0,1E0,4E0,3E0,1E0,2E0],"tree_param":{"num_deleted":"0","num_feature":"25","num_nodes":"53","size_leaf_vector":"0"}},{"base_weights":[5.88249E-1,1.3192749E1,2.917289E-1,6.9360423E-1,7.897377E-3,2.3514423E-1,1.714182E0,4.500557E-1,-2.6031667E-1,-2.897752E-1,5.813298E-1,3.1651764E0,7.7441216E-1,7.52065E-1,-2.629598E-3,-1.2777303E-1,-1.543162E0,2.1901539E-1,-9.4412696E-1,2.5242954E-1,8.786764E-1,1.820221E-1,2.4605713E0,9.807502E-1,4.950714E-2,1.9259949E-1,-1.9733277E-1,-2.0599556E-1,1.1094513E0,-2.4278896E-1,4.5229492E-1,4.6768188E-1,-1.3355637E-1,1.0382538E0,2.6662955E-1,-2.9724121E-2,2.726654E-1,5.4199725E-1,1.393692E0,-1.8217468E-1,1.874593E-1,2.5786972E-1,-3.4240723E-2,-2.451477E-1,-3.036499E-3,-7.536316E-2,-8.440849E-1],"categories":[],"categories_nodes":[],"categories_segments":[],"categories_sizes":[],"default_left":[1,0,0,0,0,0,0,0,1,0,1,0,0,1,1,1,0,0,0,0,1,0,0,0,1,1,1,1,0,0,0,0,0,0,0,0,0,0,0,0,0,0,0,0,0,0,0],"id":25,"left_children":[1,-1,3,5,7,9,11,13,15,17,19,-1,21,23,25,27,-1,29,-1,31,33,35,-1,37,39,41,43,45,-1,-1,-1,-1,-1,-1,-1,-1,-1,-1,-1,-1,-1,-1,-1,-1,-1,-1,-1],"loss_changes":[3.250502E2,0E0,9.918167E0,1.6441109E1,6.283997E0,4.893163E0,1.2548462E1,2.7362814E0,5.413914E0,3.8689866E0,1.3429542E0,0E0,7.5430326E0,1.8794208E0,3.801117E-1,3.228685E0,0E0,8.639188E-1,0E0,8.102212E-1,5.0452137E-1,1.4245838E-1,0E0,8.7523746E-1,1.6199437E-1,8.285919E-2,4.5706928E-2,2.4370418E0,0E0,0E0,0E0,0E0,0E0,0E0,0E0,0E0,0E0,0E0,0E0,0E0,0E0,0E0,0E0,0E0,0E0,0E0,0E0],"parents":[2147483647,0,0,2,2,3,3,4,4,5,5,6,6,7,7,8,8,9,9,10,10,12,12,13,13,14,14,15,15,17,17,19,19,20,20,21,21,23,23,24,24,25,25,26,26,27,27],"right_children":[2,-1,4,6,8,10,12,14,16,18,20,-1,22,24,26,28,-1,30,-1,32,34,36,-1,38,40,42,44,46,-1,-1,-1,-1,-1,-1,-1,-1,-1,-1,-1,-1,-1,-1,-1,-1,-1,-1,-1],"split_conditions":[1.5E0,3.957825E0,3.7789182E-3,2.7648981E-3,3.1185275E-1,3.652301E-4,2.98132E-1,4.872899E-1,6.792959E-3,5.3248927E-2,1.336621E-1,9.4955295E-1,2.1264228E-1,5.7969704E-2,1.683252E-1,9.878077E-1,-4.6294862E-1,2.8319575E-2,-2.832381E-1,3.127761E-1,1.4011645E-1,1.7538438E0,7.381714E-1,2.5869352E-1,8.0676323E-1,5.3E1,7.05E1,4.787077E-1,3.328354E-1,-7.283669E-2,1.3568848E-1,1.4030457E-1,-4.0066913E-2,3.1147614E-1,7.998887E-2,-8.917237E-3,8.179963E-2,1.6259918E-1,4.1810763E-1,-5.4652408E-2,5.6237794E-2,7.736092E-2,-1.0272217E-2,-7.3544316E-2,-9.109497E-4,-2.2608949E-2,-2.5322548E-1],"split_indices":[0,0,24,24,20,24,20,6,9,7,14,0,7,13,17,6,0,4,0,20,13,3,0,5,2,0,0,19,0,0,0,0,0,0,0,0,0,0,0,0,0,0,0,0,0,0,0],"split_type":[0,0,0,0,0,0,0,0,0,0,0,0,0,0,0,0,0,0,0,0,0,0,0,0,0,0,0,0,0,0,0,0,0,0,0,0,0,0,0,0,0,0,0,0,0,0,0],"sum_hessian":[8.7E1,1E0,8.6E1,3.5E1,5.1E1,2.5E1,1E1,1.9E1,3.2E1,1E1,1.5E1,3E0,7E0,1.1E1,8E0,3E1,2E0,6E0,4E0,8E0,7E0,6E0,1E0,8E0,3E0,4E0,4E0,2.9E1,1E0,2E0,4E0,5E0,3E0,5E0,2E0,2E0,4E0,5E0,3E0,1E0,2E0,3E0,1E0,3E0,1E0,2.5E1,4E0],"tree_param":{"num_deleted":"0","num_feature":"25","num_nodes":"47","size_leaf_vector":"0"}},{"base_weights":[4.817625E-1,1.1213806E1,2.2951135E-1,9.0465146E-1,1.1989039E-1,4.19371E-1,3.1213684E0,4.8654694E-2,8.1512016E-1,1.1780599E0,1.1987792E-1,2.1949023E-1,-2.0044005E-1,1.773295E0,7.719116E-2,3.5445657E-1,-2.6195955E-1,-5.383774E-1,3.134336E-1,-9.314165E-1,-8.02729E-2,-1.7462158E-1,1.8379974E-1,6.378174E-2,3.998352E-1,-2.911377E-2,-3.2987022E-1,-1.0960897E-1,-7.8768665E-1,4.5259774E-1,-2.5805155E-2,2.41045E-1,-2.6456147E-1,2.2943115E-1,2.3452759E-2],"categories":[],"categories_nodes":[],"categories_segments":[],"categories_sizes":[],"default_left":[1,0,0,1,1,1,0,1,1,0,1,0,1,0,1,1,1,0,0,0,0,0,1,0,0,0,0,0,0,0,0,0,0,0,0],"id":26,"left_children":[1,-1,3,5,7,9,-1,11,13,-1,15,17,19,-1,21,23,25,27,29,-1,31,-1,33,-1,-1,-1,-1,-1,-1,-1,-1,-1,-1,-1,-1],"loss_changes":[2.3565729E2,0E0,6.3303676E0,1.1599744E1,3.7242541E0,2.3582196E0,0E0,3.0227911E0,4.812573E0,0E0,8.989916E-1,3.159004E0,2.472574E0,0E0,1.663224E-1,5.3640366E-2,5.36471E-2,4.481423E-1,1.8056543E0,0E0,1.603367E0,0E0,2.388665E-2,0E0,0E0,0E0,0E0,0E0,0E0,0E0,0E0,0E0,0E0,0E0,0E0],"parents":[2147483647,0,0,2,2,3,3,4,4,5,5,7,7,8,8,10,10,11,11,12,12,14,14,15,15,16,16,17,17,18,18,20,20,22,22],"right_children":[2,-1,4,6,8,10,-1,12,14,-1,16,18,20,-1,22,24,26,28,30,-1,32,-1,34,-1,-1,-1,-1,-1,-1,-1,-1,-1,-1,-1,-1],"split_conditions":[1.5E0,3.364142E0,2.817729E-1,5.338E3,2.1049795E-1,5E0,9.3641055E-1,8.160155E-4,2.869E3,3.53418E-1,5.05E1,3.652301E-4,3.4737457E-2,5.3198856E-1,3.4315E3,3.5515E3,5.9E1,5.3344958E-2,8.278405E-3,-2.7942497E-1,7.952535E-2,-5.2386478E-2,6.85E1,1.9134521E-2,1.1995056E-1,-8.734131E-3,-9.896107E-2,-3.2882694E-2,-2.36306E-1,1.3577932E-1,-7.7415467E-3,7.23135E-2,-7.936844E-2,6.882935E-2,7.0358277E-3],"split_indices":[0,0,20,1,7,0,0,11,1,0,0,24,13,0,1,1,0,7,24,0,22,0,0,0,0,0,0,0,0,0,0,0,0,0,0],"split_type":[0,0,0,0,0,0,0,0,0,0,0,0,0,0,0,0,0,0,0,0,0,0,0,0,0,0,0,0,0,0,0,0,0,0,0],"sum_hessian":[8.7E1,1E0,8.6E1,1.1E1,7.5E1,1E1,1E0,6.9E1,6E0,2E0,8E0,4.1E1,2.8E1,2E0,4E0,5E0,3E0,4E0,3.7E1,3E0,2.5E1,1E0,3E0,1E0,4E0,1E0,2E0,2E0,2E0,2.6E1,1.1E1,9E0,1.6E1,2E0,1E0],"tree_param":{"num_deleted":"0","num_feature":"25","num_nodes":"35","size_leaf_vector":"0"}},{"base_weights":[3.919259E-1,9.531738E0,1.7731038E-1,7.433527E-1,8.560223E-2,3.2853612E-1,2.6531677E0,2.7946064E-2,6.4993507E-1,9.424642E-1,8.738942E-2,8.079732E-1,-6.877871E-3,1.8255005E0,1.4975739E-1,2.712809E-1,-2.102952E-1,-3.3104256E-2,8.7514496E-1,3.471171E-1,-3.570175E-2,5.4229736E-2,3.0384523E-1,-2.4749756E-2,-2.6389375E-1,-2.2753803E-3,-1.033905E0,-1.4842987E-1,5.135091E-2],"categories":[],"categories_nodes":[],"categories_segments":[],"categories_sizes":[],"default_left":[1,0,0,1,1,1,0,1,1,0,1,0,1,0,1,1,1,1,0,0,1,0,0,0,0,0,0,0,0],"id":27,"left_children":[1,-1,3,5,7,9,-1,11,13,-1,15,-1,17,-1,19,21,23,25,-1,-1,27,-1,-1,-1,-1,-1,-1,-1,-1],"loss_changes":[1.7092593E2,0E0,4.4525976E0,8.6350155E0,2.4546692E0,1.5461527E0,0E0,1.9070102E0,3.8425586E0,0E0,5.497241E-1,0E0,1.6019653E0,0E0,2.3200567E-1,2.593124E-2,3.3248574E-2,2.064836E0,0E0,0E0,4.687514E-2,0E0,0E0,0E0,0E0,0E0,0E0,0E0,0E0],"parents":[2147483647,0,0,2,2,3,3,4,4,5,5,7,7,8,8,10,10,12,12,14,14,15,15,16,16,17,17,20,20],"right_children":[2,-1,4,6,8,10,-1,12,14,-1,16,-1,18,-1,20,22,24,26,-1,-1,28,-1,-1,-1,-1,-1,-1,-1,-1],"split_conditions":[1.5E0,2.8595216E0,2.817729E-1,5.338E3,2.1049795E-1,5E0,7.9595035E-1,7.534916E-1,2.4265E3,2.8273925E-1,5.05E1,2.4239197E-1,9.878077E-1,5.4765016E-1,5.7E1,3.5515E3,5.9E1,9.8195374E-1,2.625435E-1,1.0413513E-1,3.44E3,1.6268922E-2,9.115357E-2,-7.424927E-3,-7.9168126E-2,-6.826141E-4,-3.101715E-1,-4.452896E-2,1.5405274E-2],"split_indices":[0,0,20,1,7,0,0,2,1,0,0,0,6,0,0,1,0,6,0,0,1,0,0,0,0,0,0,0,0],"split_type":[0,0,0,0,0,0,0,0,0,0,0,0,0,0,0,0,0,0,0,0,0,0,0,0,0,0,0,0,0],"sum_hessian":[8.7E1,1E0,8.6E1,1.1E1,7.5E1,1E1,1E0,6.9E1,6E0,2E0,8E0,2E0,6.7E1,1E0,5E0,5E0,3E0,6.6E1,1E0,2E0,3E0,1E0,4E0,1E0,2E0,6.5E1,1E0,1E0,2E0],"tree_param":{"num_deleted":"0","num_feature":"25","num_nodes":"29","size_leaf_vector":"0"}},{"base_weights":[3.286163E-1,8.10199E0,1.4614086E-1,3.539659E-1,-4.678942E-2,2.3110477E-2,6.837208E-1,7.83471E-2,-4.5207354E-1,5.271301E-1,-1.5613826E-1,1.4989128E0,1.6905962E-1,-7.616628E-1,1.501613E-1,2.1354167E-1,-6.2371486E-1,9.1171265E-2,9.3269855E-1,3.3360595E-1,-3.3249077E-1,4.7070312E-1,2.4094467E0,2.7940497E-1,-3.2867494E-1,3.1656966E-1,-2.265625E-1,-7.993447E-1,-6.0068765E-3,1.6973877E-1,8.402507E-3,4.8331705E-1,7.269287E-2,-4.193691E-1,9.689331E-2,6.906128E-1,9.389242E-2,3.535126E-1,-6.0755413E-2,-2.2287369E-2,4.5741004E-1,2.297465E-2,-4.3833923E-1,-9.0217334E-1,-9.118652E-2,-2.1232605E-2,1.222229E-2],"categories":[],"categories_nodes":[],"categories_segments":[],"categories_sizes":[],"default_left":[1,0,0,1,1,0,0,0,1,0,0,0,1,0,1,0,0,1,0,0,0,1,0,0,0,1,0,1,1,0,0,0,0,0,0,0,0,0,0,0,0,0,0,0,0,0,0],"id":28,"left_children":[1,-1,3,5,7,9,11,13,15,17,19,21,23,-1,25,-1,27,29,-1,31,33,35,-1,37,-1,39,41,43,45,-1,-1,-1,-1,-1,-1,-1,-1,-1,-1,-1,-1,-1,-1,-1,-1,-1,-1],"loss_changes":[1.2363954E2,0E0,3.5048916E0,4.5664496E0,2.3683474E0,2.0698926E0,8.5570965E0,2.2860591E0,1.3899069E0,9.758316E-1,1.5791706E0,6.3556232E0,8.607511E-1,0E0,2.2031822E0,0E0,9.715905E-1,2.4585508E-2,0E0,1.6017419E-1,5.255883E-1,3.4947824E-1,0E0,3.2397956E-1,0E0,1.1555884E0,5.9137845E-1,4.274664E-1,1.092168E-3,0E0,0E0,0E0,0E0,0E0,0E0,0E0,0E0,0E0,0E0,0E0,0E0,0E0,0E0,0E0,0E0,0E0,0E0],"parents":[2147483647,0,0,2,2,3,3,4,4,5,5,6,6,7,7,8,8,9,9,10,10,11,11,12,12,14,14,16,16,17,17,19,19,20,20,21,21,23,23,25,25,26,26,27,27,28,28],"right_children":[2,-1,4,6,8,10,12,14,16,18,20,22,24,-1,26,-1,28,30,-1,32,34,36,-1,38,-1,40,42,44,46,-1,-1,-1,-1,-1,-1,-1,-1,-1,-1,-1,-1,-1,-1,-1,-1,-1,-1],"split_conditions":[1.5E0,2.430597E0,4.822275E-3,1.3498203E-1,5.6676593E-2,1.6390184E0,1.99013E0,2.8811796E-3,1.21701315E-1,1.5591955E0,3.1358298E-2,1.1753731E-1,9.886581E-1,-2.2849885E-1,4.71E3,6.4062506E-2,1.5792108E-1,2E1,2.7980956E-1,3.5960875E-2,1.932823E-1,4.85E1,7.2283405E-1,1.8511064E-1,-9.860249E-2,2.4E1,8.7393224E-2,4.2465E3,5.15E1,5.0921634E-2,2.5207521E-3,1.4499512E-1,2.1807862E-2,-1.2581074E-1,2.9067995E-2,2.0718385E-1,2.8167726E-2,1.0605378E-1,-1.8226625E-2,-6.686211E-3,1.3722302E-1,6.892395E-3,-1.3150178E-1,-2.7065203E-1,-2.7355958E-2,-6.3697817E-3,3.666687E-3],"split_indices":[0,0,24,14,8,3,3,8,15,3,7,21,2,0,1,0,4,0,0,4,7,0,0,21,0,0,22,1,0,0,0,0,0,0,0,0,0,0,0,0,0,0,0,0,0,0,0],"split_type":[0,0,0,0,0,0,0,0,0,0,0,0,0,0,0,0,0,0,0,0,0,0,0,0,0,0,0,0,0,0,0,0,0,0,0,0,0,0,0,0,0,0,0,0,0,0,0],"sum_hessian":[8.7E1,1E0,8.6E1,4.1E1,4.5E1,2.1E1,2E1,3.5E1,1E1,5E0,1.6E1,7E0,1.3E1,2E0,3.3E1,2E0,8E0,3E0,2E0,4E0,1.2E1,4E0,3E0,1.1E1,2E0,2.3E1,1E1,6E0,2E0,1E0,2E0,2E0,2E0,1E1,2E0,2E0,2E0,9E0,2E0,7E0,1.6E1,5E0,5E0,5E0,1E0,1E0,1E0],"tree_param":{"num_deleted":"0","num_feature":"25","num_nodes":"47","size_leaf_vector":"0"}},{"base_weights":[2.6778325E-1,6.8867188E0,1.1254585E-1,4.3489826E-1,2.8047426E-2,2.3768425E-1,1.8937683E0,2.3073284E-1,-7.604826E-2,-7.592147E-2,4.1564387E-1,1.0744019E0,5.90467E-2,4.0599823E-1,-1.4310138E-1,7.73468E-2,-2.1020937E-1,8.5959625E-1,1.4171219E-1,1.4237168E-1,-2.3606758E-1,5.526619E-1,7.511393E-2,-6.641121E-1,-8.5995115E-2,2.5843507E-1,-3.9619446E-2,2.3630947E-1,3.2614812E-2,-4.1878557E-1,2.4740219E-1,-9.751027E-1,1.3442993E-1,1.9225135E-1,-2.1678063E-1],"categories":[],"categories_nodes":[],"categories_segments":[],"categories_sizes":[],"default_left":[1,0,0,1,1,1,0,0,0,1,1,0,1,1,1,0,0,0,0,0,0,0,0,1,1,0,0,0,0,0,0,0,0,0,0],"id":29,"left_children":[1,-1,3,5,7,9,-1,11,13,15,17,-1,19,21,23,-1,-1,-1,25,27,29,-1,-1,31,33,-1,-1,-1,-1,-1,-1,-1,-1,-1,-1],"loss_changes":[8.9645485E1,0E0,2.3575318E0,4.728654E0,1.4944541E0,9.8031193E-1,0E0,3.412871E0,1.5772667E0,1.6033353E-1,1.2159237E0,0E0,5.500076E-1,2.496596E-1,1.1925144E0,0E0,0E0,0E0,1.7956345E-1,1.675682E-1,5.453016E-1,0E0,0E0,1.1244395E0,1.4609101E0,0E0,0E0,0E0,0E0,0E0,0E0,0E0,0E0,0E0,0E0],"parents":[2147483647,0,0,2,2,3,3,4,4,5,5,7,7,8,8,9,9,10,10,12,12,13,13,14,14,18,18,19,19,20,20,23,23,24,24],"right_children":[2,-1,4,6,8,10,-1,12,14,16,18,-1,20,22,24,-1,-1,-1,26,28,30,-1,-1,32,34,-1,-1,-1,-1,-1,-1,-1,-1,-1,-1],"split_conditions":[1.5E0,2.0660157E0,2.9636294E-1,5.338E3,1.296044E-1,3.199E3,5.681305E-1,3.3056453E-1,5.403458E-3,4.65E1,4.022E3,3.2232058E-1,1.1612627E-1,5E1,1.7333667E-1,2.3204042E-2,-6.306282E-2,2.578789E-1,1.1718492E-1,3.9144963E-1,1.336187E-1,1.6579857E-1,2.253418E-2,3.95E1,1.8487808E-1,7.7530526E-2,-1.1885834E-2,7.089284E-2,9.784444E-3,-1.2563568E-1,7.422066E-2,-2.9253083E-1,4.032898E-2,5.767541E-2,-6.5034196E-2],"split_indices":[0,0,20,1,15,1,0,20,7,0,1,0,4,0,17,0,0,0,5,20,5,0,0,0,17,0,0,0,0,0,0,0,0,0,0],"split_type":[0,0,0,0,0,0,0,0,0,0,0,0,0,0,0,0,0,0,0,0,0,0,0,0,0,0,0,0,0,0,0,0,0,0,0],"sum_hessian":[8.7E1,1E0,8.6E1,1.7E1,6.9E1,1.6E1,1E0,2.3E1,4.6E1,6E0,1E1,3E0,2E1,5E0,4.1E1,3E0,3E0,3E0,7E0,1.6E1,4E0,3E0,2E0,3E0,3.8E1,4E0,3E0,8E0,8E0,3E0,1E0,2E0,1E0,1.2E1,2.6E1],"tree_param":{"num_deleted":"0","num_feature":"25","num_nodes":"35","size_leaf_vector":"0"}},{"base_weights":[2.2379169E-1,5.8536987E0,9.179622E-2,2.619097E-1,-2.7739964E-2,8.6401135E-2,6.529381E-1,1.7677017E-1,-1.6108286E-1,-1.9181442E-1,1.7945652E-1,2.1523762E-1,1.3651047E0,6.722035E-2,5.138855E-1,-9.033572E-2,-8.1486005E-1,-1.6088868E-2,-4.207522E-1,6.2889375E-2,3.8695416E-1,5.742391E-1,-1.3605754E-4,1.7592062E0,9.140015E-2,1.7872925E-1,1.9161519E-2,6.740036E-1,-6.329346E-2,5.5134624E-2,-3.1313577E-1,8.418783E-2,-1.110026E-1,-7.9789296E-2,1.7987204E-1,5.286255E-1,2.1850586E-2,6.1151505E-2,-8.180746E-2,6.928507E-2,2.28597E-1,1.0815048E-1,-1.835022E-2,6.3591766E-1,-9.350705E-2,-4.034134E-1,9.2168175E-2],"categories":[],"categories_nodes":[],"categories_segments":[],"categories_sizes":[],"default_left":[1,0,0,0,1,0,0,1,0,1,1,0,1,0,1,1,0,1,0,1,1,0,1,0,0,1,1,0,0,0,0,0,0,0,0,0,0,0,0,0,0,0,0,0,0,0,0],"id":30,"left_children":[1,-1,3,5,7,9,11,13,15,17,19,21,23,25,27,29,-1,31,-1,33,35,-1,37,-1,-1,39,41,-1,-1,43,45,-1,-1,-1,-1,-1,-1,-1,-1,-1,-1,-1,-1,-1,-1,-1,-1],"loss_changes":[6.485741E1,0E0,1.7763855E0,2.414224E0,1.4465132E0,7.075482E-1,3.1350503E0,7.410058E-1,1.4064808E0,2.7484208E-1,4.5941287E-1,6.1863387E-1,1.8470845E0,8.767806E-2,5.0474405E-1,9.895887E-1,0E0,5.6933243E-2,0E0,2.4802491E-1,3.5052216E-1,0E0,3.5035294E-2,0E0,0E0,1.14503205E-2,4.5380283E-2,0E0,0E0,1.6997056E0,4.762603E-1,0E0,0E0,0E0,0E0,0E0,0E0,0E0,0E0,0E0,0E0,0E0,0E0,0E0,0E0,0E0,0E0],"parents":[2147483647,0,0,2,2,3,3,4,4,5,5,6,6,7,7,8,8,9,9,10,10,11,11,12,12,13,13,14,14,15,15,17,17,19,19,20,20,22,22,25,25,26,26,29,29,30,30],"right_children":[2,-1,4,6,8,10,12,14,16,18,20,22,24,26,28,30,-1,32,-1,34,36,-1,38,-1,-1,40,42,-1,-1,44,46,-1,-1,-1,-1,-1,-1,-1,-1,-1,-1,-1,-1,-1,-1,-1,-1],"split_conditions":[1.5E0,1.7561097E0,3.7789182E-3,2.7648981E-3,3.1185275E-1,3.022879E-1,3.7503862E-3,2.5869352E-1,6.792959E-3,9.394181E-1,3.809E3,1.6633164E0,4.35E1,1.0432045E-2,6.9E1,3.8805E3,-2.4445802E-1,4.25E1,-1.2622567E-1,4.9276114E-4,2.0429066E-1,1.7227173E-1,4.0125E3,5.277619E-1,2.7420046E-2,8.91245E-1,3.3521396E-1,2.0220108E-1,-1.8988037E-2,9.37203E-3,9.347946E-2,2.5256349E-2,-3.3300783E-2,-2.393679E-2,5.3961612E-2,1.5858765E-1,6.555176E-3,1.8345453E-2,-2.4542239E-2,2.0785522E-2,6.85791E-2,3.2445148E-2,-5.505066E-3,1.907753E-1,-2.8052116E-2,-1.2102402E-1,2.7650453E-2],"split_indices":[0,0,24,24,20,20,9,5,9,2,1,3,0,23,0,1,0,0,0,11,17,0,1,0,0,2,10,0,0,4,4,0,0,0,0,0,0,0,0,0,0,0,0,0,0,0,0],"split_type":[0,0,0,0,0,0,0,0,0,0,0,0,0,0,0,0,0,0,0,0,0,0,0,0,0,0,0,0,0,0,0,0,0,0,0,0,0,0,0,0,0,0,0,0,0,0,0],"sum_hessian":[8.7E1,1E0,8.6E1,3.5E1,5.1E1,2.5E1,1E1,2E1,3.1E1,6E0,1.9E1,7E0,3E0,1.6E1,4E0,2.9E1,2E0,4E0,2E0,1.3E1,6E0,2E0,5E0,2E0,1E0,4E0,1.2E1,3E0,1E0,1.8E1,1.1E1,2E0,2E0,6E0,7E0,4E0,2E0,3E0,2E0,2E0,2E0,3E0,9E0,3E0,1.5E1,9E0,2E0],"tree_param":{"num_deleted":"0","num_feature":"25","num_nodes":"47","size_leaf_vector":"0"}},{"base_weights":[1.8690766E-1,4.975647E0,7.467335E-2,3.6005282E-1,2.8630884E-2,1.4808941E-1,1.3458252E0,-1.867921E-3,3.295288E-1,4.6634927E-1,2.5548406E-2,-1.6299952E-2,4.9697113E-1,7.65213E-1,1.2937927E-1,9.18986E-2,-8.036399E-2,3.2117227E-3,-6.7154694E-1,1.4458008E-1,2.6687622E-2,1.1126709E-1,3.5441082E-2,-1.3580322E-2,-9.8098435E-2,-2.816587E-1,3.532271E-2],"categories":[],"categories_nodes":[],"categories_segments":[],"categories_sizes":[],"default_left":[1,0,0,1,1,1,0,1,1,0,1,1,0,0,1,1,1,1,0,0,0,0,0,0,0,0,0],"id":31,"left_children":[1,-1,3,5,7,9,-1,11,13,-1,15,17,-1,-1,19,21,23,25,-1,-1,-1,-1,-1,-1,-1,-1,-1],"loss_changes":[4.6925014E1,0E0,1.1328342E0,2.3080697E0,6.9806963E-1,4.1708428E-1,0E0,5.1204884E-1,5.114112E-1,0E0,7.06311E-2,8.8431954E-1,0E0,0E0,5.507484E-3,2.6175566E-3,3.4052785E-3,6.31977E-1,0E0,0E0,0E0,0E0,0E0,0E0,0E0,0E0,0E0],"parents":[2147483647,0,0,2,2,3,3,4,4,5,5,7,7,8,8,10,10,11,11,14,14,15,15,16,16,17,17],"right_children":[2,-1,4,6,8,10,-1,12,14,-1,16,18,-1,-1,20,22,24,26,-1,-1,-1,-1,-1,-1,-1,-1,-1],"split_conditions":[1.5E0,1.4926941E0,2.817729E-1,5.338E3,2.1049795E-1,5E0,4.037476E-1,9.878077E-1,2.4265E3,1.3990478E-1,5.05E1,9.8195374E-1,1.4909135E-1,2.295639E-1,7.55E1,2.75E1,5.9E1,1.735208E-1,-2.0146409E-1,4.3374024E-2,8.006287E-3,3.338013E-2,1.0632325E-2,-4.0740967E-3,-2.942953E-2,-8.4497616E-2,1.0596814E-2],"split_indices":[0,0,20,1,7,0,0,6,1,0,0,6,0,0,0,0,0,17,0,0,0,0,0,0,0,0,0],"split_type":[0,0,0,0,0,0,0,0,0,0,0,0,0,0,0,0,0,0,0,0,0,0,0,0,0,0,0],"sum_hessian":[8.7E1,1E0,8.6E1,1.1E1,7.5E1,1E1,1E0,6.9E1,6E0,2E0,8E0,6.8E1,1E0,1E0,5E0,5E0,3E0,6.7E1,1E0,4E0,1E0,3E0,2E0,1E0,2E0,6E0,6.1E1],"tree_param":{"num_deleted":"0","num_feature":"25","num_nodes":"27","size_leaf_vector":"0"}},{"base_weights":[1.5585472E-1,4.229309E0,6.0420662E-2,2.4963455E-1,3.8809776E-3,1.4235727E-1,1.1439514E0,5.783354E-2,-1.4920023E-1,3.6405334E-1,5.89681E-2,1.8417415E-1,-8.0927655E-2,2.7016958E-2,-2.9287568E-1,4.746132E-1,-3.9093018E-2,1.262614E-1,-3.5975866E-2,-2.7871076E-2,4.951373E-1,-4.2076588E-1,-1.5460361E-2,1.7332077E-1,-7.5021744E-2,-3.7981796E-1,3.659566E-2,5.392863E-1,1.4029694E-1,1.5727016E-1,1.1820476E-2,-1.0102463E-1,1.0248566E-2,-3.1533813E-1,3.148041E-2,4.374186E-4,6.05022E-1,-5.7081604E-1,-1.8047714E-1,3.0003357E-1,-1.02238655E-1,3.7612915E-2,2.0601909E-1,-1.7335384E-1,1.7482758E-2,-5.1572263E-1,-1.14982605E-1],"categories":[],"categories_nodes":[],"categories_segments":[],"categories_sizes":[],"default_left":[1,0,0,1,1,1,0,1,0,1,1,1,1,1,1,1,0,1,0,0,0,1,0,0,0,1,0,0,0,0,0,0,0,0,0,0,0,0,0,0,0,0,0,0,0,0,0],"id":32,"left_children":[1,-1,3,5,7,9,-1,11,13,15,17,19,21,23,25,27,-1,29,31,33,35,37,39,41,43,45,-1,-1,-1,-1,-1,-1,-1,-1,-1,-1,-1,-1,-1,-1,-1,-1,-1,-1,-1,-1,-1],"loss_changes":[3.3954136E1,0E0,9.297653E-1,1.7559478E0,5.702492E-1,3.2978645E-1,0E0,9.089947E-1,4.6363807E-1,2.4141306E-1,1.0037875E-1,1.7941327E0,5.4970205E-1,1.4736068E-1,3.0034965E-1,1.0824919E-2,0E0,3.0079037E-2,2.2083249E-2,2.999741E-1,5.976949E-1,4.1202188E-2,6.329916E-1,1.0000691E-2,5.7607662E-2,2.2863972E-1,0E0,0E0,0E0,0E0,0E0,0E0,0E0,0E0,0E0,0E0,0E0,0E0,0E0,0E0,0E0,0E0,0E0,0E0,0E0,0E0,0E0],"parents":[2147483647,0,0,2,2,3,3,4,4,5,5,7,7,8,8,9,9,10,10,11,11,12,12,13,13,14,14,15,15,17,17,18,18,19,19,20,20,21,21,22,22,23,23,24,24,25,25],"right_children":[2,-1,4,6,8,10,-1,12,14,16,18,20,22,24,26,28,-1,30,32,34,36,38,40,42,44,46,-1,-1,-1,-1,-1,-1,-1,-1,-1,-1,-1,-1,-1,-1,-1,-1,-1,-1,-1,-1,-1],"split_conditions":[1.5E0,1.2687927E0,2.9908043E-1,5.338E3,8.943204E-3,8.315339E-1,3.4318542E-1,9.2544496E-2,1.3179275E-1,6.9E1,3.15E1,1.3990721E-1,1.08878985E-1,3.458547E-1,9.028363E-1,4.01E3,-1.1727906E-2,9.0390265E-1,5.279216E-2,3.022879E-1,3.1009686E-1,8.542815E-1,6.908879E-2,1.9820969E0,1.1543156E-1,2.467688E-1,1.0978699E-2,1.617859E-1,4.2089082E-2,4.718105E-2,3.5461427E-3,-3.030739E-2,3.0745699E-3,-9.4601445E-2,9.444123E-3,1.3122559E-4,1.815066E-1,-1.7124481E-1,-5.4143146E-2,9.001008E-2,-3.0671598E-2,1.12838745E-2,6.180573E-2,-5.200615E-2,5.2448274E-3,-1.5471679E-1,-3.4494784E-2],"split_indices":[0,0,20,1,24,2,0,13,21,0,0,14,13,10,2,1,0,2,5,20,20,2,7,3,4,10,0,0,0,0,0,0,0,0,0,0,0,0,0,0,0,0,0,0,0,0,0],"split_type":[0,0,0,0,0,0,0,0,0,0,0,0,0,0,0,0,0,0,0,0,0,0,0,0,0,0,0,0,0,0,0,0,0,0,0,0,0,0,0,0,0,0,0,0,0,0,0],"sum_hessian":[8.7E1,1E0,8.6E1,1.9E1,6.7E1,1.8E1,1E0,5E1,1.7E1,4E0,1.4E1,2.6E1,2.4E1,8E0,9E0,3E0,1E0,8E0,6E0,1.6E1,1E1,3E0,2.1E1,3E0,5E0,7E0,2E0,2E0,1E0,6E0,2E0,2E0,4E0,2E0,1.4E1,2E0,8E0,1E0,2E0,4E0,1.7E1,1E0,2E0,2E0,3E0,4E0,3E0],"tree_param":{"num_deleted":"0","num_feature":"25","num_nodes":"47","size_leaf_vector":"0"}},{"base_weights":[1.2734754E-1,3.5949097E0,4.6169713E-2,1.4902717E-1,-2.5927177E-2,-9.712189E-2,2.4743535E-1,1.03131615E-1,-1.0981178E-1,2.9515402E-2,-2.549897E-1,6.9421387E-1,1.5897667E-1,4.1146223E-2,2.9325563E-1,-6.0587566E-2,-5.6545E-1,6.9270454E-2,-1.0450745E-1,-2.8699875E-1,-6.34768E-2,5.2612305E-2,8.9054364E-1,6.70556E-2,4.082438E-1,8.372307E-2,2.9701232E-3,3.8318634E-1,-3.3233643E-2,-4.8519135E-1,-2.921532E-2,1.1671702E-1,1.6367912E-2,1.15145005E-1,-8.100586E-2,6.707255E-1,1.09321594E-1,-5.7754517E-2,1.121848E-1,-2.9331207E-2,2.1003723E-2,3.6693192E-1,-8.903738E-2],"categories":[],"categories_nodes":[],"categories_segments":[],"categories_sizes":[],"default_left":[1,0,0,0,1,0,0,1,0,0,0,0,0,0,1,0,0,1,0,0,0,0,0,1,1,1,0,0,0,0,0,0,0,0,0,0,0,0,0,0,0,0,0],"id":33,"left_children":[1,-1,3,5,7,9,11,13,15,17,19,21,23,25,27,29,-1,31,-1,-1,-1,-1,-1,33,35,37,39,-1,-1,-1,41,-1,-1,-1,-1,-1,-1,-1,-1,-1,-1,-1,-1],"loss_changes":[2.4605072E1,0E0,6.4903E-1,8.960624E-1,5.742794E-1,2.2743762E-1,9.171933E-1,2.3541677E-1,6.834508E-1,4.4535868E-2,1.2432963E-2,4.5700836E-1,4.996218E-1,2.7383437E-2,1.5954173E-1,3.8544822E-1,0E0,1.3149852E-2,0E0,0E0,0E0,0E0,0E0,1.3749081E-1,3.9744484E-1,3.8692746E-2,6.4411573E-3,0E0,0E0,0E0,7.1992266E-1,0E0,0E0,0E0,0E0,0E0,0E0,0E0,0E0,0E0,0E0,0E0,0E0],"parents":[2147483647,0,0,2,2,3,3,4,4,5,5,6,6,7,7,8,8,9,9,10,10,11,11,12,12,13,13,14,14,15,15,17,17,23,23,24,24,25,25,26,26,30,30],"right_children":[2,-1,4,6,8,10,12,14,16,18,20,22,24,26,28,30,-1,32,-1,-1,-1,-1,-1,34,36,38,40,-1,-1,-1,42,-1,-1,-1,-1,-1,-1,-1,-1,-1,-1,-1,-1],"split_conditions":[1.5E0,1.078473E0,3.7789182E-3,3.652301E-4,3.1185275E-1,5.3248927E-2,2.8326577E-1,2.5869352E-1,6.792959E-3,2.9700288E-1,1.4330262E-1,1.5476484E0,1.06661096E-1,1.1776475E-1,6.9E1,2.986574E-3,-1.6963501E-1,2.055E2,-3.1352237E-2,-8.6099625E-2,-1.9043041E-2,1.5783692E-2,2.671631E-1,4.295E3,4.45E1,2.442E3,1.4530188E-1,1.1495591E-1,-9.970093E-3,-1.455574E-1,9.37203E-3,3.5015106E-2,4.910374E-3,3.4543503E-2,-2.4301758E-2,2.0121767E-1,3.279648E-2,-1.7326355E-2,3.3655442E-2,-8.799363E-3,6.301117E-3,1.1007958E-1,-2.6711216E-2],"split_indices":[0,0,24,24,20,7,20,5,9,5,7,3,8,5,0,8,0,1,0,0,0,0,0,1,0,1,4,0,0,0,4,0,0,0,0,0,0,0,0,0,0,0,0],"split_type":[0,0,0,0,0,0,0,0,0,0,0,0,0,0,0,0,0,0,0,0,0,0,0,0,0,0,0,0,0,0,0,0,0,0,0,0,0,0,0,0,0,0,0],"sum_hessian":[8.7E1,1E0,8.6E1,3.5E1,5.1E1,1E1,2.5E1,2E1,3.1E1,6E0,4E0,3E0,2.2E1,1.6E1,4E0,2.9E1,2E0,5E0,1E0,3E0,1E0,1E0,2E0,1.7E1,5E0,7E0,9E0,3E0,1E0,1E0,2.8E1,2E0,3E0,1.3E1,4E0,2E0,3E0,1E0,6E0,3E0,6E0,3E0,2.5E1],"tree_param":{"num_deleted":"0","num_feature":"25","num_nodes":"43","size_leaf_vector":"0"}},{"base_weights":[1.05008185E-1,3.055664E0,3.5970025E-2,1.3395685E-1,-1.2802649E-2,7.6465115E-2,6.0673016E-1,4.225192E-2,-1.9278176E-1,-3.6878967E-1,1.0777451E-1,8.3877563E-1,7.131958E-2,1.2438093E-2,2.8423768E-1,-2.7827E-1,1.67511E-2,4.5906067E-1,7.536064E-2,1.5631782E-1,-2.6013542E-2,3.5357666E-1,3.440857E-3,-4.7912758E-2,-3.2987022E-1,-4.835701E-2,1.3859177E-1,-5.130291E-3,1.3896997E-1,3.0445862E-1,3.1504314E-2,-1.8070105E-3,-4.1241455E-1,-1.9584656E-2,-3.7139893E-1,-5.256653E-3,-8.882904E-2],"categories":[],"categories_nodes":[],"categories_segments":[],"categories_sizes":[],"default_left":[1,0,0,0,1,1,1,1,1,0,0,0,0,1,1,0,1,0,0,1,0,0,0,0,1,1,0,0,0,0,0,0,0,0,0,0,0],"id":34,"left_children":[1,-1,3,5,7,9,11,13,15,-1,17,-1,-1,19,21,23,25,-1,27,29,31,-1,-1,-1,33,35,-1,-1,-1,-1,-1,-1,-1,-1,-1,-1,-1],"loss_changes":[1.7816378E1,0E0,4.174949E-1,7.4184245E-1,5.9275705E-1,4.1614395E-1,3.1289768E-1,3.283326E-1,2.5543767E-1,0E0,2.6145503E-1,0E0,0E0,2.3642763E-1,9.6134186E-2,1.0305989E-1,4.6365958E-2,0E0,1.2871231E-1,1.5681799E-1,3.1727132E-1,0E0,0E0,0E0,9.581232E-2,6.5104933E-3,0E0,0E0,0E0,0E0,0E0,0E0,0E0,0E0,0E0,0E0,0E0],"parents":[2147483647,0,0,2,2,3,3,4,4,5,5,6,6,7,7,8,8,10,10,13,13,14,14,15,15,16,16,18,18,19,19,20,20,24,24,25,25],"right_children":[2,-1,4,6,8,10,12,14,16,-1,18,-1,-1,20,22,24,26,-1,28,30,32,-1,-1,-1,34,36,-1,-1,-1,-1,-1,-1,-1,-1,-1,-1,-1],"split_conditions":[1.5E0,9.1669923E-1,4.5770574E-1,1.5937412E-2,9.39482E-1,1.7341594E-1,3.7E1,9.266244E-1,9.544062E-1,-1.10636905E-1,2.8244745E-2,2.516327E-1,2.1395875E-2,1.6970468E-1,6.05E1,5.8090533E-3,8.1E1,1.377182E-1,1.0920606E-1,8.390125E-1,9.8195374E-1,1.06073E-1,1.0322571E-3,-1.4373828E-2,2.45E1,2.0687232E0,4.1577533E-2,-1.5390874E-3,4.1690994E-2,9.133759E-2,9.451294E-3,-5.421032E-4,-1.2372437E-1,-5.875397E-3,-1.11419685E-1,-1.576996E-3,-2.6648713E-2],"split_indices":[0,0,6,9,2,17,0,2,2,0,4,0,0,17,0,23,0,0,21,2,6,0,0,0,0,3,0,0,0,0,0,0,0,0,0,0,0],"split_type":[0,0,0,0,0,0,0,0,0,0,0,0,0,0,0,0,0,0,0,0,0,0,0,0,0,0,0,0,0,0,0,0,0,0,0,0,0],"sum_hessian":[8.7E1,1E0,8.6E1,2.8E1,5.8E1,2.6E1,2E0,4.5E1,1.3E1,1E0,2.5E1,1E0,1E0,4.1E1,4E0,9E0,4E0,1E0,2.4E1,8E0,3.3E1,3E0,1E0,2E0,7E0,3E0,1E0,1.1E1,1.3E1,3E0,5E0,3.2E1,1E0,1E0,6E0,2E0,1E0],"tree_param":{"num_deleted":"0","num_feature":"25","num_nodes":"37","size_leaf_vector":"0"}},{"base_weights":[8.7398656E-2,2.59729E0,2.869542E-2,8.467029E-3,2.0306736E-1,3.9476205E-2,-8.498385E-2,5.021286E-2,7.1295166E-1,1.5645777E-1,4.7186148E-4,-1.421943E-1,1.1508636E-1,9.083048E-2,2.1535238E-2,-1.4360155E-2,2.7193198E-1,-2.602806E-1,2.4716932E-2,-2.1412663E-1,1.3380687E-2,1.5474701E-1,3.70636E-2,-1.6072592E-3,3.35083E-2,3.8659096E-2,-6.378937E-2,3.9506835E-1,9.440918E-2,2.1957397E-2,-3.6167908E-1,4.023252E-2,-3.1346893E-1,-8.190671E-2,-3.1065878E-1,-1.1151123E-1,6.0661316E-2],"categories":[],"categories_nodes":[],"categories_segments":[],"categories_sizes":[],"default_left":[1,0,1,1,1,1,1,0,0,1,1,0,0,0,1,0,1,1,1,0,1,0,0,0,0,0,0,0,0,0,0,0,0,0,0,0,0],"id":35,"left_children":[1,-1,3,5,7,9,11,13,-1,15,17,19,21,-1,23,25,27,29,31,33,35,-1,-1,-1,-1,-1,-1,-1,-1,-1,-1,-1,-1,-1,-1,-1,-1],"loss_changes":[1.2891279E1,0E0,3.0515254E-1,2.3228379E-1,6.656437E-1,2.7369353E-1,2.4528679E-1,7.3624775E-3,0E0,2.997809E-1,2.972436E-1,1.8191907E-1,9.736687E-3,0E0,1.716376E-3,2.081094E-2,1.5943754E-1,1.2241554E-1,2.3823923E-1,1.1495316E-1,4.219423E-2,0E0,0E0,8.797897E-7,0E0,0E0,0E0,0E0,0E0,0E0,0E0,0E0,0E0,0E0,0E0,0E0,0E0],"parents":[2147483647,0,0,2,2,3,3,4,4,5,5,6,6,7,7,9,9,10,10,11,11,12,12,14,14,15,15,16,16,17,17,18,18,19,19,20,20],"right_children":[2,-1,4,6,8,10,12,14,-1,16,18,20,22,-1,24,26,28,30,32,34,36,-1,-1,-1,-1,-1,-1,-1,-1,-1,-1,-1,-1,-1,-1,-1,-1],"split_conditions":[1.5E0,7.79187E-1,3.3444226E-1,1.4386147E-1,5.337E3,2.5986505E-1,2.2614147E-1,3.0075872E-1,2.138855E-1,2.4285221E-1,2.6707345E-1,1.1428293E-1,2.2007174E0,2.7249146E-2,5.5654216E-1,6.289147E-1,7.1785835E-5,3.846E3,1.0942084E-2,5.707952E-3,1.6502567E-1,4.6424106E-2,1.111908E-2,-4.8217777E-4,1.0052491E-2,1.1597729E-2,-1.913681E-2,1.18520506E-1,2.8322756E-2,6.5872194E-3,-1.0850373E-1,1.2069757E-2,-9.4040684E-2,-2.4572015E-2,-9.319764E-2,-3.345337E-2,1.8198395E-2],"split_indices":[0,0,16,21,1,16,17,6,0,16,16,22,3,0,10,6,11,1,9,24,14,0,0,0,0,0,0,0,0,0,0,0,0,0,0,0,0],"split_type":[0,0,0,0,0,0,0,0,0,0,0,0,0,0,0,0,0,0,0,0,0,0,0,0,0,0,0,0,0,0,0,0,0,0,0,0,0],"sum_hessian":[8.7E1,1E0,8.6E1,7.8E1,8E0,5.9E1,1.9E1,7E0,1E0,1.4E1,4.5E1,1.5E1,4E0,2E0,5E0,6E0,8E0,3E0,4.2E1,1E1,5E0,2E0,2E0,2E0,3E0,3E0,3E0,4E0,4E0,1E0,2E0,4.1E1,1E0,5E0,5E0,1E0,4E0],"tree_param":{"num_deleted":"0","num_feature":"25","num_nodes":"37","size_leaf_vector":"0"}},{"base_weights":[7.151544E-2,2.2077026E0,2.1585673E-2,1.241214E-1,-5.089024E-3,6.0126416E-2,6.0601807E-1,-2.4082375E-1,9.060646E-3,-1.4317989E-2,1.136693E-1,8.207669E-2,-2.8460015E-2,-4.3952942E-2,1.225357E-2,1.5796851E-2,1.7628479E-1,2.4036407E-2,2.4251811E-1,1.2743863E-2,-1.3086525E-1,-1.361084E-2,-4.953003E-2,2.2420248E-2,-1.9976299E-3,5.0638836E-2,-2.4310747E-2,2.2495118E-1,-3.352356E-2,-4.8094854E-2,8.655091E-2,4.1176352E-1,5.495453E-2,9.7132064E-2,-7.2393976E-2,-2.2150095E-1,-2.1534512E-2],"categories":[],"categories_nodes":[],"categories_segments":[],"categories_sizes":[],"default_left":[1,0,0,1,0,0,0,0,0,1,0,0,1,1,1,1,1,0,1,1,0,0,0,0,0,0,0,0,0,0,0,0,0,0,0,0,0],"id":36,"left_children":[1,-1,3,5,7,9,-1,-1,11,13,15,17,19,21,23,25,27,29,31,33,35,-1,-1,-1,-1,-1,-1,-1,-1,-1,-1,-1,-1,-1,-1,-1,-1],"loss_changes":[9.3383665E0,0E0,2.385862E-1,5.1866376E-1,2.3567182E-1,6.9388986E-2,0E0,0E0,1.858898E-1,6.838156E-3,5.8498576E-2,2.0834829E-1,1.9154489E-1,2.7366914E-6,7.6922413E-4,8.218209E-3,6.8804815E-2,8.5329145E-2,1.6783735E-1,2.4412455E-1,1.2405056E-1,0E0,0E0,0E0,0E0,0E0,0E0,0E0,0E0,0E0,0E0,0E0,0E0,0E0,0E0,0E0,0E0],"parents":[2147483647,0,0,2,2,3,3,4,4,5,5,8,8,9,9,10,10,11,11,12,12,13,13,14,14,15,15,16,16,17,17,18,18,19,19,20,20],"right_children":[2,-1,4,6,8,10,-1,-1,12,14,16,18,20,22,24,26,28,30,32,34,36,-1,-1,-1,-1,-1,-1,-1,-1,-1,-1,-1,-1,-1,-1,-1,-1],"split_conditions":[1.5E0,6.6231084E-1,2.9636294E-1,5.338E3,1.6970282E0,4.3734197E-2,1.8180543E-1,-7.2247125E-2,3.3510877E-3,8.997586E-1,7.5904853E-3,1.06661096E-1,5.6676593E-2,3.4E1,3.05E1,2.55E1,6.9E1,5.2503353E-1,4.45E1,3.869E3,1.213475E-1,-4.083252E-3,-1.48590095E-2,6.7260745E-3,-5.9928896E-4,1.5191651E-2,-7.2932243E-3,6.7485355E-2,-1.0057068E-2,-1.4428456E-2,2.5965273E-2,1.2352906E-1,1.648636E-2,2.9139621E-2,-2.1718193E-2,-6.645029E-2,-6.4603537E-3],"split_indices":[0,0,20,1,3,7,0,0,24,2,23,8,8,0,0,0,0,6,0,1,7,0,0,0,0,0,0,0,0,0,0,0,0,0,0,0,0],"split_type":[0,0,0,0,0,0,0,0,0,0,0,0,0,0,0,0,0,0,0,0,0,0,0,0,0,0,0,0,0,0,0,0,0,0,0,0,0],"sum_hessian":[8.7E1,1E0,8.6E1,1.7E1,6.9E1,1.6E1,1E0,3E0,6.6E1,7E0,9E0,2.2E1,4.4E1,3E0,4E0,4E0,5E0,1.7E1,5E0,3.2E1,1.2E1,1E0,2E0,2E0,2E0,2E0,2E0,4E0,1E0,8E0,9E0,2E0,3E0,1.6E1,1.6E1,6E0,6E0],"tree_param":{"num_deleted":"0","num_feature":"25","num_nodes":"37","size_leaf_vector":"0"}},{"base_weights":[6.0407147E-2,1.8765259E0,1.7962955E-2,8.2190216E-2,-1.3910835E-2,4.7251455E-2,3.6924234E-1,1.8693592E-2,-1.20046034E-1,-2.3322296E-1,6.700905E-2,5.151062E-1,3.8757324E-2,1.0116044E-3,2.0410156E-1,1.9398808E-2,-1.5983997E-1,-1.2833118E-2,1.264155E-1,-1.7376728E-2,1.4423828E-1,-2.8540134E-2,8.160782E-2,-1.9685173E-1,-4.5856476E-2,2.5215149E-2,-9.523344E-2,2.3138428E-1,3.0726962E-2,5.468077E-2,-6.9881104E-2,-5.986023E-2,-2.3253886E-1],"categories":[],"categories_nodes":[],"categories_segments":[],"categories_sizes":[],"default_left":[1,0,0,0,1,1,1,0,1,0,0,0,0,0,0,1,1,0,0,1,0,0,0,1,0,0,0,0,0,0,0,0,0],"id":37,"left_children":[1,-1,3,5,7,9,11,13,15,-1,17,-1,-1,19,-1,21,23,25,27,29,-1,-1,-1,31,-1,-1,-1,-1,-1,-1,-1,-1,-1],"loss_changes":[6.7496567E0,0E0,1.792468E-1,2.734009E-1,2.0641226E-1,1.6524851E-1,1.2465331E-1,1.5059908E-1,8.0787554E-2,0E0,1.2494396E-1,0E0,0E0,1.1575548E-1,0E0,1.4258035E-2,3.7379086E-2,4.0023603E-2,1.4355491E-1,1.5137118E-1,0E0,0E0,0E0,2.519083E-2,0E0,0E0,0E0,0E0,0E0,0E0,0E0,0E0,0E0],"parents":[2147483647,0,0,2,2,3,3,4,4,5,5,6,6,7,7,8,8,10,10,13,13,15,15,16,16,17,17,18,18,19,19,23,23],"right_children":[2,-1,4,6,8,10,12,14,16,-1,18,-1,-1,20,-1,22,24,26,28,30,-1,-1,-1,32,-1,-1,-1,-1,-1,-1,-1,-1,-1],"split_conditions":[1.5E0,5.6295776E-1,4.5770574E-1,1.5937412E-2,9.39482E-1,1.7341594E-1,3.7E1,3.6596578E-1,1.51E3,-6.996689E-2,1.0920606E-1,1.5453187E-1,1.1627197E-2,9.758535E-2,6.123047E-2,7.3E1,2.7518678E-1,7.77265E-2,8.053758E-2,1.8222257E-1,4.3271486E-2,-8.5620405E-3,2.4482347E-2,8.518468E-5,-1.3756943E-2,7.564545E-3,-2.8570034E-2,6.9415286E-2,9.218089E-3,1.6404232E-2,-2.0964332E-2,-1.795807E-2,-6.976166E-2],"split_indices":[0,0,6,9,2,17,0,20,1,0,21,0,0,22,0,0,18,22,22,17,0,0,0,11,0,0,0,0,0,0,0,0,0],"split_type":[0,0,0,0,0,0,0,0,0,0,0,0,0,0,0,0,0,0,0,0,0,0,0,0,0,0,0,0,0,0,0,0,0],"sum_hessian":[8.7E1,1E0,8.6E1,2.8E1,5.8E1,2.6E1,2E0,4.5E1,1.3E1,1E0,2.5E1,1E0,1E0,4.2E1,3E0,3E0,1E1,1.1E1,1.4E1,3.8E1,4E0,2E0,1E0,7E0,3E0,8E0,3E0,6E0,8E0,1.6E1,2.2E1,2E0,5E0],"tree_param":{"num_deleted":"0","num_feature":"25","num_nodes":"33","size_leaf_vector":"0"}},{"base_weights":[5.0593186E-2,1.5950317E0,1.4507321E-2,6.617597E-2,-1.3847685E-2,1.4231847E-2,2.8023782E-1,3.6571503E-2,-4.9030416E-2,-2.4768272E-2,9.065077E-2,3.8593292E-1,4.5898438E-2,-5.1249187E-2,6.2379535E-2,-2.0236206E-1,-2.1840794E-2,3.8000107E-2,-6.8166345E-2,1.6546631E-1,-2.2949218E-3,9.957886E-2,4.4819131E-1,1.17123075E-1,1.1918501E-2,-2.743454E-1,4.2785645E-2,1.9302876E-1,-4.4082504E-2,-2.2705078E-2,6.201935E-2,6.7920685E-2,-8.8567115E-2,1.8249512E-2,1.9770813E-1,-2.9184977E-2,2.5360107E-2,1.468593E-1,8.69751E-3,-1.9252777E-2,2.6014328E-2,-3.1547037E-1,-7.548523E-2,-1.18479505E-1,1.9120216E-2],"categories":[],"categories_nodes":[],"categories_segments":[],"categories_sizes":[],"default_left":[1,0,0,0,0,1,1,0,0,1,1,1,0,0,1,1,0,0,0,1,1,0,0,1,1,1,0,0,0,0,0,0,0,0,0,0,0,0,0,0,0,0,0,0,0],"id":38,"left_children":[1,-1,3,5,7,9,11,13,15,17,19,21,-1,-1,23,25,27,29,31,33,35,-1,-1,37,39,41,-1,-1,43,-1,-1,-1,-1,-1,-1,-1,-1,-1,-1,-1,-1,-1,-1,-1,-1],"loss_changes":[4.8813114E0,0E0,1.2837702E-1,3.4070867E-1,1.0290454E-1,7.973429E-2,1.3089737E-1,5.75924E-2,1.3732725E-1,5.1622804E-2,6.296378E-2,2.6681423E-2,0E0,0E0,5.1089965E-2,9.99708E-2,1.5188119E-1,1.3072894E-2,3.6554627E-2,2.0124614E-2,4.4583604E-3,0E0,0E0,2.7740203E-2,5.334082E-3,8.8991225E-3,0E0,0E0,1.3392396E-1,0E0,0E0,0E0,0E0,0E0,0E0,0E0,0E0,0E0,0E0,0E0,0E0,0E0,0E0,0E0,0E0],"parents":[2147483647,0,0,2,2,3,3,4,4,5,5,6,6,7,7,8,8,9,9,10,10,11,11,14,14,15,15,16,16,17,17,18,18,19,19,20,20,23,23,24,24,25,25,28,28],"right_children":[2,-1,4,6,8,10,12,14,16,18,20,22,-1,-1,24,26,28,30,32,34,36,-1,-1,38,40,42,-1,-1,44,-1,-1,-1,-1,-1,-1,-1,-1,-1,-1,-1,-1,-1,-1,-1,-1],"split_conditions":[1.5E0,4.7850955E-1,3.38365E-3,2.7648981E-3,3.1190044E-1,3.809E3,4.35E1,3.887667E-2,3.1564623E-1,7.914647E-1,4.8E1,9.0796274E-1,1.3769532E-2,-1.5374756E-2,3.98E3,5.3E1,1.5304561E-3,1.688823E0,2.0781176E-1,2.1E1,5.834E3,2.9873658E-2,1.344574E-1,7.3E1,8.0087614E-1,5.1055E3,1.2835694E-2,5.790863E-2,6.073337E-4,-6.811524E-3,1.8605806E-2,2.0376205E-2,-2.6570136E-2,5.474854E-3,5.931244E-2,-8.755493E-3,7.6080323E-3,4.4057794E-2,2.609253E-3,-5.7758335E-3,7.804299E-3,-9.464111E-2,-2.264557E-2,-3.554385E-2,5.736065E-3],"split_indices":[0,0,24,24,20,1,0,7,20,12,0,2,0,0,1,0,4,3,6,0,1,0,0,0,2,1,0,0,9,0,0,0,0,0,0,0,0,0,0,0,0,0,0,0,0],"split_type":[0,0,0,0,0,0,0,0,0,0,0,0,0,0,0,0,0,0,0,0,0,0,0,0,0,0,0,0,0,0,0,0,0,0,0,0,0,0,0,0,0,0,0,0,0],"sum_hessian":[8.7E1,1E0,8.6E1,3E1,5.6E1,2.5E1,5E0,2.3E1,3.3E1,1.7E1,8E0,3E0,2E0,5E0,1.8E1,4E0,2.9E1,7E0,1E1,4E0,4E0,1E0,2E0,8E0,1E1,3E0,1E0,2E0,2.7E1,2E0,5E0,1E0,9E0,1E0,3E0,2E0,2E0,6E0,2E0,3E0,7E0,2E0,1E0,1.2E1,1.5E1],"tree_param":{"num_deleted":"0","num_feature":"25","num_nodes":"45","size_leaf_vector":"0"}},{"base_weights":[4.317101E-2,1.3557739E0,1.2500012E-2,-1.4621673E-2,5.5207983E-2,-7.0481494E-2,1.0753029E-2,3.4420013E-2,3.7060547E-1,-1.5879588E-2,-1.462157E-1,-2.2764587E-1,2.3348834E-2,-6.91452E-2,6.496239E-2,-3.920412E-2,5.9387207E-2,-1.764838E-1,1.769638E-2,1.2171766E-1,-7.984556E-3,-2.049764E-2,-1.4339192E-1,9.1822125E-2,-3.987376E-2,-5.7406187E-2,-2.0999908E-3,-6.106059E-2,-2.1893024E-1,1.8316905E-1,-8.8882446E-4,-7.2480775E-2,2.4662782E-2,2.0858765E-2,-3.2940675E-2,3.3702157E-2,1.4159463E-1,-5.5912018E-2,-5.1981607E-3],"categories":[],"categories_nodes":[],"categories_segments":[],"categories_sizes":[],"default_left":[1,0,1,1,1,1,0,1,0,1,1,0,0,0,1,1,0,0,0,0,1,1,0,0,0,0,0,0,0,0,0,0,0,0,0,0,0,0,0],"id":39,"left_children":[1,-1,3,5,7,9,11,13,-1,15,17,-1,19,21,23,25,-1,27,-1,29,31,33,-1,35,37,-1,-1,-1,-1,-1,-1,-1,-1,-1,-1,-1,-1,-1,-1],"loss_changes":[3.5258307E0,0E0,1.0158038E-1,7.729892E-2,2.1016383E-1,6.7977116E-2,1.1942265E-1,1.0887505E-1,0E0,2.1639414E-2,3.7852257E-2,0E0,1.1501434E-1,2.5956184E-2,7.687395E-2,5.9577934E-3,0E0,1.6027823E-2,0E0,6.797184E-2,6.285085E-2,3.7746963E-3,0E0,5.5976257E-2,3.0461773E-3,0E0,0E0,0E0,0E0,0E0,0E0,0E0,0E0,0E0,0E0,0E0,0E0,0E0,0E0],"parents":[2147483647,0,0,2,2,3,3,4,4,5,5,6,6,7,7,9,9,10,10,12,12,13,13,14,14,15,15,17,17,19,19,20,20,21,21,23,23,24,24],"right_children":[2,-1,4,6,8,10,12,14,-1,16,18,-1,20,22,24,26,-1,28,-1,30,32,34,-1,36,38,-1,-1,-1,-1,-1,-1,-1,-1,-1,-1,-1,-1,-1,-1],"split_conditions":[1.5E0,4.067322E-1,1.3501471E-1,2.421E3,2.1753177E-1,3.8949572E-3,1.0663222E-3,2.25E1,1.1118165E-1,8E1,9.620117E-1,-6.8293765E-2,3.5516806E-2,1.2228551E-2,4.71E3,3.3053222E-1,1.7816164E-2,9.101513E-2,5.3089145E-3,2.0305777E0,1.7050695E-1,6.5E0,-4.3017577E-2,3.1504687E-2,3.7215978E-2,-1.7221857E-2,-6.299973E-4,-1.8318178E-2,-6.567907E-2,5.4950718E-2,-2.6664734E-4,-2.1744233E-2,7.398835E-3,6.2576295E-3,-9.882202E-3,1.0110647E-2,4.247839E-2,-1.6773606E-2,-1.5594483E-3],"split_indices":[0,0,5,1,17,24,8,0,0,0,2,0,5,24,1,16,0,7,0,3,10,0,0,8,8,0,0,0,0,0,0,0,0,0,0,0,0,0,0],"split_type":[0,0,0,0,0,0,0,0,0,0,0,0,0,0,0,0,0,0,0,0,0,0,0,0,0,0,0,0,0,0,0,0,0,0,0,0,0,0,0],"sum_hessian":[8.7E1,1E0,8.6E1,5.3E1,3.3E1,1.6E1,3.7E1,3.2E1,1E0,1E1,6E0,1E0,3.6E1,7E0,2.5E1,8E0,2E0,5E0,1E0,8E0,2.8E1,5E0,2E0,2E1,5E0,5E0,3E0,2E0,3E0,5E0,3E0,9E0,1.9E1,1E0,4E0,1E1,1E1,3E0,2E0],"tree_param":{"num_deleted":"0","num_feature":"25","num_nodes":"39","size_leaf_vector":"0"}},{"base_weights":[3.474977E-2,1.1524048E0,8.657127E-3,4.5440793E-2,-1.25167025E-2,9.066215E-3,1.7405483E-1,4.196167E-3,-7.4146904E-2,3.8825203E-2,-4.2430688E-2,3.4309387E-2,2.7028656E-1,-2.4959087E-2,7.053702E-2,1.7594656E-2,-1.4219011E-1,1.1049143E-1,-2.433459E-4,-1.3412476E-1,-1.7339706E-2,7.9589844E-2,3.0732217E-1,-1.3923137E-1,1.3591625E-3,1.3967459E-1,1.2245178E-3,4.3748856E-2,-2.3142496E-2,-4.0456135E-2,-1.7479248E-1,1.7730713E-2,1.2549743E-1,-2.2617722E-2,1.3771057E-2,3.3111572E-3,-5.974515E-2,-2.0532227E-1,-4.699707E-3,1.6172325E-2,-6.705322E-2,4.6749115E-2,-3.5440065E-2,-5.140686E-2,-1.9278717E-1],"categories":[],"categories_nodes":[],"categories_segments":[],"categories_sizes":[],"default_left":[1,0,0,0,1,1,0,1,1,1,0,0,1,1,0,1,0,1,1,0,1,0,0,1,1,0,0,0,0,0,1,0,0,0,0,0,0,0,0,0,0,0,0,0,0],"id":40,"left_children":[1,-1,3,5,7,9,11,13,15,17,19,-1,21,23,25,27,29,31,33,-1,35,-1,-1,37,39,-1,41,-1,-1,-1,43,-1,-1,-1,-1,-1,-1,-1,-1,-1,-1,-1,-1,-1,-1],"loss_changes":[2.5563297E0,0E0,6.832882E-2,1.4812699E-1,5.7992116E-2,4.149227E-2,8.486226E-2,8.879884E-2,7.7410474E-2,4.7625113E-2,2.0681255E-2,0E0,3.7905574E-3,9.6427515E-2,6.691835E-2,7.405143E-3,1.6145945E-2,6.126642E-3,4.074232E-3,0E0,8.079208E-3,0E0,0E0,5.238296E-2,2.844631E-2,0E0,1.50099145E-2,0E0,0E0,0E0,1.1908561E-3,0E0,0E0,0E0,0E0,0E0,0E0,0E0,0E0,0E0,0E0,0E0,0E0,0E0,0E0],"parents":[2147483647,0,0,2,2,3,3,4,4,5,5,6,6,7,7,8,8,9,9,10,10,12,12,13,13,14,14,15,15,16,16,17,17,18,18,20,20,23,23,24,24,26,26,30,30],"right_children":[2,-1,4,6,8,10,12,14,16,18,20,-1,22,24,26,28,30,32,34,-1,36,-1,-1,38,40,-1,42,-1,-1,-1,44,-1,-1,-1,-1,-1,-1,-1,-1,-1,-1,-1,-1,-1,-1],"split_conditions":[1.5E0,3.4572145E-1,3.444281E-3,2.7648981E-3,1.4386147E-1,2.8126937E-1,1.2339099E-1,1.9843593E0,2.023164E-1,2.612046E-1,3.6309235E-2,1.0292817E-2,9.0796274E-1,2.4881473E-1,2.028665E0,2.6078877E-1,5.707952E-3,7.5E0,2.364E3,-4.0237427E-2,9.886581E-1,2.3876954E-2,9.219666E-2,9.095793E-1,3.2236922E-1,4.190238E-2,8.7393224E-2,1.3124657E-2,-6.942749E-3,-1.2136841E-2,2E1,5.319214E-3,3.764923E-2,-6.785317E-3,4.131317E-3,9.933473E-4,-1.7923547E-2,-6.159668E-2,-1.4099121E-3,4.851698E-3,-2.0115968E-2,1.4024735E-2,-1.06320195E-2,-1.5422058E-2,-5.7836153E-2],"split_indices":[0,0,24,24,21,16,5,3,18,18,4,0,2,10,3,10,24,0,1,0,2,0,0,2,20,0,22,0,0,0,0,0,0,0,0,0,0,0,0,0,0,0,0,0,0],"split_type":[0,0,0,0,0,0,0,0,0,0,0,0,0,0,0,0,0,0,0,0,0,0,0,0,0,0,0,0,0,0,0,0,0,0,0,0,0,0,0,0,0,0,0,0,0],"sum_hessian":[8.7E1,1E0,8.6E1,3.1E1,5.5E1,2.5E1,6E0,4.4E1,1.1E1,1.6E1,9E0,3E0,3E0,3.1E1,1.3E1,5E0,6E0,5E0,1.1E1,1E0,8E0,1E0,2E0,5E0,2.6E1,6E0,7E0,3E0,2E0,2E0,4E0,1E0,4E0,4E0,7E0,6E0,2E0,3E0,2E0,2.2E1,4E0,3E0,4E0,1E0,3E0],"tree_param":{"num_deleted":"0","num_feature":"25","num_nodes":"45","size_leaf_vector":"0"}},{"base_weights":[2.8223872E-2,9.795532E-1,6.0298196E-3,-2.7000692E-3,8.198886E-2,-5.0478484E-2,1.2225995E-2,-5.229405E-3,2.5816855E-1,-3.0188928E-3,-1.3140652E-1,7.957474E-2,4.7917366E-3,-4.7943115E-2,6.770325E-2,-4.2412654E-2,6.849365E-2,-3.6380768E-2,-1.9358063E-1,1.5859285E-2,1.0746765E-1,1.7328681E-2,-2.7633667E-2,-5.7151794E-2,-5.554199E-3,-9.272766E-2,-1.4790126E-2,9.902954E-3,8.066559E-2,2.5054932E-2,-1.2660027E-3,1.2278239E-1,3.0761719E-2,2.441587E-2,-5.433178E-2,-7.583618E-2,1.828342E-2],"categories":[],"categories_nodes":[],"categories_segments":[],"categories_sizes":[],"default_left":[1,0,1,1,0,1,0,0,0,1,1,0,0,1,0,1,1,0,0,1,1,1,0,0,0,0,0,0,0,0,0,0,0,0,0,0,0],"id":41,"left_children":[1,-1,3,5,7,9,11,13,-1,15,17,19,21,23,-1,25,27,-1,-1,29,31,33,35,-1,-1,-1,-1,-1,-1,-1,-1,-1,-1,-1,-1,-1,-1],"loss_changes":[1.8521125E0,0E0,5.7912298E-2,5.6955498E-2,1.3964483E-1,7.257871E-2,3.016067E-2,2.5052475E-2,0E0,3.952792E-2,3.4314387E-2,8.958895E-3,2.3243723E-2,1.634297E-3,0E0,1.1136996E-2,2.7669836E-3,0E0,0E0,5.0415384E-4,9.219274E-4,2.2149276E-2,3.679965E-2,0E0,0E0,0E0,0E0,0E0,0E0,0E0,0E0,0E0,0E0,0E0,0E0,0E0,0E0],"parents":[2147483647,0,0,2,2,3,3,4,4,5,5,6,6,7,7,9,9,10,10,11,11,12,12,13,13,15,15,16,16,19,19,20,20,21,21,22,22],"right_children":[2,-1,4,6,8,10,12,14,-1,16,18,20,22,24,-1,26,28,-1,-1,30,32,34,36,-1,-1,-1,-1,-1,-1,-1,-1,-1,-1,-1,-1,-1,-1],"split_conditions":[1.5E0,2.9386598E-1,5.4255E3,2.1182843E-2,7.059551E-3,2.601259E-1,3.3763036E-2,2.0461566E0,7.7450566E-2,8.3778605E-2,1.1110739E-2,2.4955515E-2,5.6676593E-2,6.4985E3,2.0310976E-2,8.678089E-1,2.95E1,-1.0914231E-2,-5.807419E-2,3.55E1,4.4E1,1.1929004E-1,1.213475E-1,-1.7145539E-2,-1.6662598E-3,-2.78183E-2,-4.437038E-3,2.9708864E-3,2.4199678E-2,7.5164796E-3,-3.7980083E-4,3.6834717E-2,9.228516E-3,7.3247612E-3,-1.6299535E-2,-2.2750854E-2,5.485026E-3],"split_indices":[0,0,1,4,9,16,4,3,0,13,7,4,8,1,0,2,0,0,0,0,0,11,7,0,0,0,0,0,0,0,0,0,0,0,0,0,0],"split_type":[0,0,0,0,0,0,0,0,0,0,0,0,0,0,0,0,0,0,0,0,0,0,0,0,0,0,0,0,0,0,0,0,0,0,0,0,0],"sum_hessian":[8.7E1,1E0,8.6E1,7.8E1,8E0,1.8E1,6E1,6E0,2E0,1.2E1,6E0,5E0,5.5E1,4E0,2E0,8E0,4E0,3E0,3E0,2E0,3E0,4E1,1.5E1,3E0,1E0,2E0,6E0,1E0,3E0,1E0,1E0,2E0,1E0,3.7E1,3E0,7E0,8E0],"tree_param":{"num_deleted":"0","num_feature":"25","num_nodes":"37","size_leaf_vector":"0"}},{"base_weights":[2.3458041E-2,8.326416E-1,4.5864885E-3,-2.4865125E-3,6.616211E-2,-4.0613174E-2,8.622623E-3,-3.4484863E-3,2.0653279E-1,-2.506256E-3,-1.164093E-1,6.4567484E-2,2.5824162E-3,-3.7322998E-2,5.4158527E-2,-3.3274755E-2,5.3378295E-2,-1.5003204E-1,-3.277588E-2,1.3483524E-2,8.673859E-2,-2.9496329E-2,1.2730598E-2,-1.079305E-2,-5.1411945E-2,-7.418314E-2,-1.0989053E-2,7.372538E-2,1.5238444E-2,2.130127E-2,-1.075983E-3,9.821574E-2,2.6153564E-2,-9.892146E-3,-9.8080955E-2,3.2198485E-2,-1.2240792E-2],"categories":[],"categories_nodes":[],"categories_segments":[],"categories_sizes":[],"default_left":[1,0,1,0,0,1,0,0,0,1,1,0,1,0,0,1,0,0,0,1,1,1,1,0,0,0,0,0,0,0,0,0,0,0,0,0,0],"id":42,"left_children":[1,-1,3,5,7,9,11,13,-1,15,17,19,21,23,-1,25,27,-1,-1,29,31,33,35,-1,-1,-1,-1,-1,-1,-1,-1,-1,-1,-1,-1,-1,-1],"loss_changes":[1.3399895E0,0E0,3.805514E-2,3.3810977E-2,8.86538E-2,5.1698677E-2,2.078421E-2,1.5681226E-2,0E0,2.4129441E-2,1.19544715E-2,5.6259837E-3,1.893134E-2,1.314003E-3,0E0,7.389847E-3,2.7567148E-3,0E0,0E0,3.6438735E-4,2.1268241E-4,1.7853407E-2,2.1784302E-2,0E0,0E0,0E0,0E0,0E0,0E0,0E0,0E0,0E0,0E0,0E0,0E0,0E0,0E0],"parents":[2147483647,0,0,2,2,3,3,4,4,5,5,6,6,7,7,9,9,10,10,11,11,12,12,13,13,15,15,16,16,19,19,20,20,21,21,22,22],"right_children":[2,-1,4,6,8,10,12,14,-1,16,18,20,22,24,-1,26,28,-1,-1,30,32,34,36,-1,-1,-1,-1,-1,-1,-1,-1,-1,-1,-1,-1,-1,-1],"split_conditions":[1.5E0,2.4979249E-1,5.4255E3,2.1182843E-2,7.059551E-3,2.601259E-1,3.3763036E-2,2.0461566E0,6.195984E-2,8.3778605E-2,5.5E1,2.4955515E-2,1.95E1,1.8621318E0,1.624756E-2,8.678089E-1,2.0305777E0,-4.5009613E-2,-9.832764E-3,3.55E1,4.4E1,1.1974275E-2,2.0081647E-1,-3.237915E-3,-1.5423584E-2,-2.2254944E-2,-3.2967161E-3,2.2117615E-2,4.5715333E-3,6.390381E-3,-3.2279492E-4,2.9464722E-2,7.8460695E-3,-2.967644E-3,-2.9424287E-2,9.6595455E-3,-3.6722377E-3],"split_indices":[0,0,1,4,9,16,4,3,0,13,0,4,0,3,0,2,3,0,0,0,0,24,17,0,0,0,0,0,0,0,0,0,0,0,0,0,0],"split_type":[0,0,0,0,0,0,0,0,0,0,0,0,0,0,0,0,0,0,0,0,0,0,0,0,0,0,0,0,0,0,0,0,0,0,0,0,0],"sum_hessian":[8.7E1,1E0,8.6E1,7.8E1,8E0,1.7E1,6.1E1,6E0,2E0,1.2E1,5E0,5E0,5.6E1,4E0,2E0,8E0,4E0,3E0,2E0,2E0,3E0,1.3E1,4.3E1,2E0,2E0,2E0,6E0,2E0,2E0,1E0,1E0,2E0,1E0,1.1E1,2E0,2.4E1,1.9E1],"tree_param":{"num_deleted":"0","num_feature":"25","num_nodes":"37","size_leaf_vector":"0"}},{"base_weights":[1.951881E-2,7.077637E-1,3.4727338E-3,2.7167536E-2,-9.474838E-3,3.928258E-3,1.2334315E-1,-1.3627416E-2,6.981405E-2,-1.5519415E-2,2.4569731E-2,1.658783E-1,2.5515238E-2,4.975455E-4,-3.6520094E-2,1.21536255E-2,9.2567444E-2,-4.798584E-2,2.2657395E-3,3.785428E-2,-3.2330196E-2,1.5974116E-2,-4.5987446E-2,4.424286E-2,-4.2770386E-2,-5.6297302E-2,-7.369995E-3,-7.086345E-3,1.8065453E-2,4.095459E-3,5.6559972E-2,-2.2541229E-3,6.837682E-2,-1.04515076E-1,6.9554645E-4,3.3569336E-3,-5.4512024E-2],"categories":[],"categories_nodes":[],"categories_segments":[],"categories_sizes":[],"default_left":[1,0,0,0,1,1,1,1,1,1,1,0,0,1,1,0,0,1,0,1,0,1,1,0,0,0,0,0,0,0,0,0,0,0,0,0,0],"id":43,"left_children":[1,-1,3,5,7,9,11,13,15,17,19,-1,-1,21,23,-1,-1,25,27,29,-1,31,33,-1,35,-1,-1,-1,-1,-1,-1,-1,-1,-1,-1,-1,-1],"loss_changes":[9.693814E-1,0E0,2.6948152E-2,6.880209E-2,1.9718822E-2,1.0818452E-2,2.0734318E-2,1.7802872E-2,2.8108824E-3,8.192608E-3,1.1050405E-2,0E0,0E0,2.5914596E-2,1.2492912E-2,0E0,0E0,1.2729736E-3,1.6056205E-3,6.7146625E-3,0E0,2.5944771E-2,2.46629E-2,0E0,1.1015199E-2,0E0,0E0,0E0,0E0,0E0,0E0,0E0,0E0,0E0,0E0,0E0,0E0],"parents":[2147483647,0,0,2,2,3,3,4,4,5,5,6,6,7,7,8,8,9,9,10,10,13,13,14,14,17,17,18,18,19,19,21,21,22,22,24,24],"right_children":[2,-1,4,6,8,10,12,14,16,18,20,-1,-1,22,24,-1,-1,26,28,30,-1,32,34,-1,36,-1,-1,-1,-1,-1,-1,-1,-1,-1,-1,-1,-1],"split_conditions":[1.5E0,2.123291E-1,3.38365E-3,2.7648981E-3,1.9369942E-1,1.3498203E-1,4.35E1,3.98E3,6.55E1,1.4068682E-1,9.886581E-1,4.976349E-2,7.6545714E-3,1.4377318E-1,1.3491511E-1,3.6460878E-3,2.7770234E-2,5.45E1,1.2324888E-2,2.5978416E-1,-9.69906E-3,3.6775E3,2.753465E-1,1.3272858E-2,1.025952E-2,-1.6889192E-2,-2.2109987E-3,-2.1259035E-3,5.419636E-3,1.2286378E-3,1.6967993E-2,-6.762369E-4,2.0513047E-2,-3.1354524E-2,2.0866394E-4,1.0070801E-3,-1.6353607E-2],"split_indices":[0,0,24,24,14,14,0,1,0,10,2,0,0,21,15,0,0,0,23,16,0,1,16,0,23,0,0,0,0,0,0,0,0,0,0,0,0],"split_type":[0,0,0,0,0,0,0,0,0,0,0,0,0,0,0,0,0,0,0,0,0,0,0,0,0,0,0,0,0,0,0,0,0,0,0,0,0],"sum_hessian":[8.7E1,1E0,8.6E1,3E1,5.6E1,2.5E1,5E0,5.4E1,2E0,1.3E1,1.2E1,3E0,2E0,3.4E1,2E1,1E0,1E0,4E0,9E0,1E1,2E0,2.6E1,8E0,1E0,1.9E1,3E0,1E0,6E0,3E0,4E0,6E0,2E1,6E0,3E0,5E0,4E0,1.5E1],"tree_param":{"num_deleted":"0","num_feature":"25","num_nodes":"37","size_leaf_vector":"0"}},{"base_weights":[1.6851502E-2,6.0162354E-1,3.2147705E-3,-3.731529E-3,3.4272194E-2,-7.0647225E-3,5.4698944E-2,8.884239E-2,-1.804267E-2,-1.9856106E-2,4.534747E-3,2.0477295E-2,7.8681946E-2,3.290558E-2,1.7110188E-1,-4.0392194E-2,4.012044E-2,9.483264E-3,-3.7073046E-2,-4.4840496E-2,8.637346E-3,-1.51901245E-2,4.5562744E-2,-2.3058573E-2,-7.219696E-2,1.2268066E-2,4.7912598E-2,4.7022503E-2,-1.6168248E-3,-1.9944584E-2,-8.78952E-2,-5.404663E-2,-1.3214111E-2,-9.448781E-3,2.4365073E-2],"categories":[],"categories_nodes":[],"categories_segments":[],